tree
version=v4
num_class=1
num_tree_per_iteration=1
label_index=0
max_feature_idx=5000
objective=binary sigmoid:1
feature_names=Column_0 Column_1 Column_2 Column_3 Column_4 Column_5 Column_6 Column_7 Column_8 Column_9 Column_10 Column_11 Column_12 Column_13 Column_14 Column_15 Column_16 Column_17 Column_18 Column_19 Column_20 Column_21 Column_22 Column_23 Column_24 Column_25 Column_26 Column_27 Column_28 Column_29 Column_30 Column_31 Column_32 Column_33 Column_34 Column_35 Column_36 Column_37 Column_38 Column_39 Column_40 Column_41 Column_42 Column_43 Column_44 Column_45 Column_46 Column_47 Column_48 Column_49 Column_50 Column_51 Column_52 Column_53 Column_54 Column_55 Column_56 Column_57 Column_58 Column_59 Column_60 Column_61 Column_62 Column_63 Column_64 Column_65 Column_66 Column_67 Column_68 Column_69 Column_70 Column_71 Column_72 Column_73 Column_74 Column_75 Column_76 Column_77 Column_78 Column_79 Column_80 Column_81 Column_82 Column_83 Column_84 Column_85 Column_86 Column_87 Column_88 Column_89 Column_90 Column_91 Column_92 Column_93 Column_94 Column_95 Column_96 Column_97 Column_98 Column_99 Column_100 Column_101 Column_102 Column_103 Column_104 Column_105 Column_106 Column_107 Column_108 Column_109 Column_110 Column_111 Column_112 Column_113 Column_114 Column_115 Column_116 Column_117 Column_118 Column_119 Column_120 Column_121 Column_122 Column_123 Column_124 Column_125 Column_126 Column_127 Column_128 Column_129 Column_130 Column_131 Column_132 Column_133 Column_134 Column_135 Column_136 Column_137 Column_138 Column_139 Column_140 Column_141 Column_142 Column_143 Column_144 Column_145 Column_146 Column_147 Column_148 Column_149 Column_150 Column_151 Column_152 Column_153 Column_154 Column_155 Column_156 Column_157 Column_158 Column_159 Column_160 Column_161 Column_162 Column_163 Column_164 Column_165 Column_166 Column_167 Column_168 Column_169 Column_170 Column_171 Column_172 Column_173 Column_174 Column_175 Column_176 Column_177 Column_178 Column_179 Column_180 Column_181 Column_182 Column_183 Column_184 Column_185 Column_186 Column_187 Column_188 Column_189 Column_190 Column_191 Column_192 Column_193 Column_194 Column_195 Column_196 Column_197 Column_198 Column_199 Column_200 Column_201 Column_202 Column_203 Column_204 Column_205 Column_206 Column_207 Column_208 Column_209 Column_210 Column_211 Column_212 Column_213 Column_214 Column_215 Column_216 Column_217 Column_218 Column_219 Column_220 Column_221 Column_222 Column_223 Column_224 Column_225 Column_226 Column_227 Column_228 Column_229 Column_230 Column_231 Column_232 Column_233 Column_234 Column_235 Column_236 Column_237 Column_238 Column_239 Column_240 Column_241 Column_242 Column_243 Column_244 Column_245 Column_246 Column_247 Column_248 Column_249 Column_250 Column_251 Column_252 Column_253 Column_254 Column_255 Column_256 Column_257 Column_258 Column_259 Column_260 Column_261 Column_262 Column_263 Column_264 Column_265 Column_266 Column_267 Column_268 Column_269 Column_270 Column_271 Column_272 Column_273 Column_274 Column_275 Column_276 Column_277 Column_278 Column_279 Column_280 Column_281 Column_282 Column_283 Column_284 Column_285 Column_286 Column_287 Column_288 Column_289 Column_290 Column_291 Column_292 Column_293 Column_294 Column_295 Column_296 Column_297 Column_298 Column_299 Column_300 Column_301 Column_302 Column_303 Column_304 Column_305 Column_306 Column_307 Column_308 Column_309 Column_310 Column_311 Column_312 Column_313 Column_314 Column_315 Column_316 Column_317 Column_318 Column_319 Column_320 Column_321 Column_322 Column_323 Column_324 Column_325 Column_326 Column_327 Column_328 Column_329 Column_330 Column_331 Column_332 Column_333 Column_334 Column_335 Column_336 Column_337 Column_338 Column_339 Column_340 Column_341 Column_342 Column_343 Column_344 Column_345 Column_346 Column_347 Column_348 Column_349 Column_350 Column_351 Column_352 Column_353 Column_354 Column_355 Column_356 Column_357 Column_358 Column_359 Column_360 Column_361 Column_362 Column_363 Column_364 Column_365 Column_366 Column_367 Column_368 Column_369 Column_370 Column_371 Column_372 Column_373 Column_374 Column_375 Column_376 Column_377 Column_378 Column_379 Column_380 Column_381 Column_382 Column_383 Column_384 Column_385 Column_386 Column_387 Column_388 Column_389 Column_390 Column_391 Column_392 Column_393 Column_394 Column_395 Column_396 Column_397 Column_398 Column_399 Column_400 Column_401 Column_402 Column_403 Column_404 Column_405 Column_406 Column_407 Column_408 Column_409 Column_410 Column_411 Column_412 Column_413 Column_414 Column_415 Column_416 Column_417 Column_418 Column_419 Column_420 Column_421 Column_422 Column_423 Column_424 Column_425 Column_426 Column_427 Column_428 Column_429 Column_430 Column_431 Column_432 Column_433 Column_434 Column_435 Column_436 Column_437 Column_438 Column_439 Column_440 Column_441 Column_442 Column_443 Column_444 Column_445 Column_446 Column_447 Column_448 Column_449 Column_450 Column_451 Column_452 Column_453 Column_454 Column_455 Column_456 Column_457 Column_458 Column_459 Column_460 Column_461 Column_462 Column_463 Column_464 Column_465 Column_466 Column_467 Column_468 Column_469 Column_470 Column_471 Column_472 Column_473 Column_474 Column_475 Column_476 Column_477 Column_478 Column_479 Column_480 Column_481 Column_482 Column_483 Column_484 Column_485 Column_486 Column_487 Column_488 Column_489 Column_490 Column_491 Column_492 Column_493 Column_494 Column_495 Column_496 Column_497 Column_498 Column_499 Column_500 Column_501 Column_502 Column_503 Column_504 Column_505 Column_506 Column_507 Column_508 Column_509 Column_510 Column_511 Column_512 Column_513 Column_514 Column_515 Column_516 Column_517 Column_518 Column_519 Column_520 Column_521 Column_522 Column_523 Column_524 Column_525 Column_526 Column_527 Column_528 Column_529 Column_530 Column_531 Column_532 Column_533 Column_534 Column_535 Column_536 Column_537 Column_538 Column_539 Column_540 Column_541 Column_542 Column_543 Column_544 Column_545 Column_546 Column_547 Column_548 Column_549 Column_550 Column_551 Column_552 Column_553 Column_554 Column_555 Column_556 Column_557 Column_558 Column_559 Column_560 Column_561 Column_562 Column_563 Column_564 Column_565 Column_566 Column_567 Column_568 Column_569 Column_570 Column_571 Column_572 Column_573 Column_574 Column_575 Column_576 Column_577 Column_578 Column_579 Column_580 Column_581 Column_582 Column_583 Column_584 Column_585 Column_586 Column_587 Column_588 Column_589 Column_590 Column_591 Column_592 Column_593 Column_594 Column_595 Column_596 Column_597 Column_598 Column_599 Column_600 Column_601 Column_602 Column_603 Column_604 Column_605 Column_606 Column_607 Column_608 Column_609 Column_610 Column_611 Column_612 Column_613 Column_614 Column_615 Column_616 Column_617 Column_618 Column_619 Column_620 Column_621 Column_622 Column_623 Column_624 Column_625 Column_626 Column_627 Column_628 Column_629 Column_630 Column_631 Column_632 Column_633 Column_634 Column_635 Column_636 Column_637 Column_638 Column_639 Column_640 Column_641 Column_642 Column_643 Column_644 Column_645 Column_646 Column_647 Column_648 Column_649 Column_650 Column_651 Column_652 Column_653 Column_654 Column_655 Column_656 Column_657 Column_658 Column_659 Column_660 Column_661 Column_662 Column_663 Column_664 Column_665 Column_666 Column_667 Column_668 Column_669 Column_670 Column_671 Column_672 Column_673 Column_674 Column_675 Column_676 Column_677 Column_678 Column_679 Column_680 Column_681 Column_682 Column_683 Column_684 Column_685 Column_686 Column_687 Column_688 Column_689 Column_690 Column_691 Column_692 Column_693 Column_694 Column_695 Column_696 Column_697 Column_698 Column_699 Column_700 Column_701 Column_702 Column_703 Column_704 Column_705 Column_706 Column_707 Column_708 Column_709 Column_710 Column_711 Column_712 Column_713 Column_714 Column_715 Column_716 Column_717 Column_718 Column_719 Column_720 Column_721 Column_722 Column_723 Column_724 Column_725 Column_726 Column_727 Column_728 Column_729 Column_730 Column_731 Column_732 Column_733 Column_734 Column_735 Column_736 Column_737 Column_738 Column_739 Column_740 Column_741 Column_742 Column_743 Column_744 Column_745 Column_746 Column_747 Column_748 Column_749 Column_750 Column_751 Column_752 Column_753 Column_754 Column_755 Column_756 Column_757 Column_758 Column_759 Column_760 Column_761 Column_762 Column_763 Column_764 Column_765 Column_766 Column_767 Column_768 Column_769 Column_770 Column_771 Column_772 Column_773 Column_774 Column_775 Column_776 Column_777 Column_778 Column_779 Column_780 Column_781 Column_782 Column_783 Column_784 Column_785 Column_786 Column_787 Column_788 Column_789 Column_790 Column_791 Column_792 Column_793 Column_794 Column_795 Column_796 Column_797 Column_798 Column_799 Column_800 Column_801 Column_802 Column_803 Column_804 Column_805 Column_806 Column_807 Column_808 Column_809 Column_810 Column_811 Column_812 Column_813 Column_814 Column_815 Column_816 Column_817 Column_818 Column_819 Column_820 Column_821 Column_822 Column_823 Column_824 Column_825 Column_826 Column_827 Column_828 Column_829 Column_830 Column_831 Column_832 Column_833 Column_834 Column_835 Column_836 Column_837 Column_838 Column_839 Column_840 Column_841 Column_842 Column_843 Column_844 Column_845 Column_846 Column_847 Column_848 Column_849 Column_850 Column_851 Column_852 Column_853 Column_854 Column_855 Column_856 Column_857 Column_858 Column_859 Column_860 Column_861 Column_862 Column_863 Column_864 Column_865 Column_866 Column_867 Column_868 Column_869 Column_870 Column_871 Column_872 Column_873 Column_874 Column_875 Column_876 Column_877 Column_878 Column_879 Column_880 Column_881 Column_882 Column_883 Column_884 Column_885 Column_886 Column_887 Column_888 Column_889 Column_890 Column_891 Column_892 Column_893 Column_894 Column_895 Column_896 Column_897 Column_898 Column_899 Column_900 Column_901 Column_902 Column_903 Column_904 Column_905 Column_906 Column_907 Column_908 Column_909 Column_910 Column_911 Column_912 Column_913 Column_914 Column_915 Column_916 Column_917 Column_918 Column_919 Column_920 Column_921 Column_922 Column_923 Column_924 Column_925 Column_926 Column_927 Column_928 Column_929 Column_930 Column_931 Column_932 Column_933 Column_934 Column_935 Column_936 Column_937 Column_938 Column_939 Column_940 Column_941 Column_942 Column_943 Column_944 Column_945 Column_946 Column_947 Column_948 Column_949 Column_950 Column_951 Column_952 Column_953 Column_954 Column_955 Column_956 Column_957 Column_958 Column_959 Column_960 Column_961 Column_962 Column_963 Column_964 Column_965 Column_966 Column_967 Column_968 Column_969 Column_970 Column_971 Column_972 Column_973 Column_974 Column_975 Column_976 Column_977 Column_978 Column_979 Column_980 Column_981 Column_982 Column_983 Column_984 Column_985 Column_986 Column_987 Column_988 Column_989 Column_990 Column_991 Column_992 Column_993 Column_994 Column_995 Column_996 Column_997 Column_998 Column_999 Column_1000 Column_1001 Column_1002 Column_1003 Column_1004 Column_1005 Column_1006 Column_1007 Column_1008 Column_1009 Column_1010 Column_1011 Column_1012 Column_1013 Column_1014 Column_1015 Column_1016 Column_1017 Column_1018 Column_1019 Column_1020 Column_1021 Column_1022 Column_1023 Column_1024 Column_1025 Column_1026 Column_1027 Column_1028 Column_1029 Column_1030 Column_1031 Column_1032 Column_1033 Column_1034 Column_1035 Column_1036 Column_1037 Column_1038 Column_1039 Column_1040 Column_1041 Column_1042 Column_1043 Column_1044 Column_1045 Column_1046 Column_1047 Column_1048 Column_1049 Column_1050 Column_1051 Column_1052 Column_1053 Column_1054 Column_1055 Column_1056 Column_1057 Column_1058 Column_1059 Column_1060 Column_1061 Column_1062 Column_1063 Column_1064 Column_1065 Column_1066 Column_1067 Column_1068 Column_1069 Column_1070 Column_1071 Column_1072 Column_1073 Column_1074 Column_1075 Column_1076 Column_1077 Column_1078 Column_1079 Column_1080 Column_1081 Column_1082 Column_1083 Column_1084 Column_1085 Column_1086 Column_1087 Column_1088 Column_1089 Column_1090 Column_1091 Column_1092 Column_1093 Column_1094 Column_1095 Column_1096 Column_1097 Column_1098 Column_1099 Column_1100 Column_1101 Column_1102 Column_1103 Column_1104 Column_1105 Column_1106 Column_1107 Column_1108 Column_1109 Column_1110 Column_1111 Column_1112 Column_1113 Column_1114 Column_1115 Column_1116 Column_1117 Column_1118 Column_1119 Column_1120 Column_1121 Column_1122 Column_1123 Column_1124 Column_1125 Column_1126 Column_1127 Column_1128 Column_1129 Column_1130 Column_1131 Column_1132 Column_1133 Column_1134 Column_1135 Column_1136 Column_1137 Column_1138 Column_1139 Column_1140 Column_1141 Column_1142 Column_1143 Column_1144 Column_1145 Column_1146 Column_1147 Column_1148 Column_1149 Column_1150 Column_1151 Column_1152 Column_1153 Column_1154 Column_1155 Column_1156 Column_1157 Column_1158 Column_1159 Column_1160 Column_1161 Column_1162 Column_1163 Column_1164 Column_1165 Column_1166 Column_1167 Column_1168 Column_1169 Column_1170 Column_1171 Column_1172 Column_1173 Column_1174 Column_1175 Column_1176 Column_1177 Column_1178 Column_1179 Column_1180 Column_1181 Column_1182 Column_1183 Column_1184 Column_1185 Column_1186 Column_1187 Column_1188 Column_1189 Column_1190 Column_1191 Column_1192 Column_1193 Column_1194 Column_1195 Column_1196 Column_1197 Column_1198 Column_1199 Column_1200 Column_1201 Column_1202 Column_1203 Column_1204 Column_1205 Column_1206 Column_1207 Column_1208 Column_1209 Column_1210 Column_1211 Column_1212 Column_1213 Column_1214 Column_1215 Column_1216 Column_1217 Column_1218 Column_1219 Column_1220 Column_1221 Column_1222 Column_1223 Column_1224 Column_1225 Column_1226 Column_1227 Column_1228 Column_1229 Column_1230 Column_1231 Column_1232 Column_1233 Column_1234 Column_1235 Column_1236 Column_1237 Column_1238 Column_1239 Column_1240 Column_1241 Column_1242 Column_1243 Column_1244 Column_1245 Column_1246 Column_1247 Column_1248 Column_1249 Column_1250 Column_1251 Column_1252 Column_1253 Column_1254 Column_1255 Column_1256 Column_1257 Column_1258 Column_1259 Column_1260 Column_1261 Column_1262 Column_1263 Column_1264 Column_1265 Column_1266 Column_1267 Column_1268 Column_1269 Column_1270 Column_1271 Column_1272 Column_1273 Column_1274 Column_1275 Column_1276 Column_1277 Column_1278 Column_1279 Column_1280 Column_1281 Column_1282 Column_1283 Column_1284 Column_1285 Column_1286 Column_1287 Column_1288 Column_1289 Column_1290 Column_1291 Column_1292 Column_1293 Column_1294 Column_1295 Column_1296 Column_1297 Column_1298 Column_1299 Column_1300 Column_1301 Column_1302 Column_1303 Column_1304 Column_1305 Column_1306 Column_1307 Column_1308 Column_1309 Column_1310 Column_1311 Column_1312 Column_1313 Column_1314 Column_1315 Column_1316 Column_1317 Column_1318 Column_1319 Column_1320 Column_1321 Column_1322 Column_1323 Column_1324 Column_1325 Column_1326 Column_1327 Column_1328 Column_1329 Column_1330 Column_1331 Column_1332 Column_1333 Column_1334 Column_1335 Column_1336 Column_1337 Column_1338 Column_1339 Column_1340 Column_1341 Column_1342 Column_1343 Column_1344 Column_1345 Column_1346 Column_1347 Column_1348 Column_1349 Column_1350 Column_1351 Column_1352 Column_1353 Column_1354 Column_1355 Column_1356 Column_1357 Column_1358 Column_1359 Column_1360 Column_1361 Column_1362 Column_1363 Column_1364 Column_1365 Column_1366 Column_1367 Column_1368 Column_1369 Column_1370 Column_1371 Column_1372 Column_1373 Column_1374 Column_1375 Column_1376 Column_1377 Column_1378 Column_1379 Column_1380 Column_1381 Column_1382 Column_1383 Column_1384 Column_1385 Column_1386 Column_1387 Column_1388 Column_1389 Column_1390 Column_1391 Column_1392 Column_1393 Column_1394 Column_1395 Column_1396 Column_1397 Column_1398 Column_1399 Column_1400 Column_1401 Column_1402 Column_1403 Column_1404 Column_1405 Column_1406 Column_1407 Column_1408 Column_1409 Column_1410 Column_1411 Column_1412 Column_1413 Column_1414 Column_1415 Column_1416 Column_1417 Column_1418 Column_1419 Column_1420 Column_1421 Column_1422 Column_1423 Column_1424 Column_1425 Column_1426 Column_1427 Column_1428 Column_1429 Column_1430 Column_1431 Column_1432 Column_1433 Column_1434 Column_1435 Column_1436 Column_1437 Column_1438 Column_1439 Column_1440 Column_1441 Column_1442 Column_1443 Column_1444 Column_1445 Column_1446 Column_1447 Column_1448 Column_1449 Column_1450 Column_1451 Column_1452 Column_1453 Column_1454 Column_1455 Column_1456 Column_1457 Column_1458 Column_1459 Column_1460 Column_1461 Column_1462 Column_1463 Column_1464 Column_1465 Column_1466 Column_1467 Column_1468 Column_1469 Column_1470 Column_1471 Column_1472 Column_1473 Column_1474 Column_1475 Column_1476 Column_1477 Column_1478 Column_1479 Column_1480 Column_1481 Column_1482 Column_1483 Column_1484 Column_1485 Column_1486 Column_1487 Column_1488 Column_1489 Column_1490 Column_1491 Column_1492 Column_1493 Column_1494 Column_1495 Column_1496 Column_1497 Column_1498 Column_1499 Column_1500 Column_1501 Column_1502 Column_1503 Column_1504 Column_1505 Column_1506 Column_1507 Column_1508 Column_1509 Column_1510 Column_1511 Column_1512 Column_1513 Column_1514 Column_1515 Column_1516 Column_1517 Column_1518 Column_1519 Column_1520 Column_1521 Column_1522 Column_1523 Column_1524 Column_1525 Column_1526 Column_1527 Column_1528 Column_1529 Column_1530 Column_1531 Column_1532 Column_1533 Column_1534 Column_1535 Column_1536 Column_1537 Column_1538 Column_1539 Column_1540 Column_1541 Column_1542 Column_1543 Column_1544 Column_1545 Column_1546 Column_1547 Column_1548 Column_1549 Column_1550 Column_1551 Column_1552 Column_1553 Column_1554 Column_1555 Column_1556 Column_1557 Column_1558 Column_1559 Column_1560 Column_1561 Column_1562 Column_1563 Column_1564 Column_1565 Column_1566 Column_1567 Column_1568 Column_1569 Column_1570 Column_1571 Column_1572 Column_1573 Column_1574 Column_1575 Column_1576 Column_1577 Column_1578 Column_1579 Column_1580 Column_1581 Column_1582 Column_1583 Column_1584 Column_1585 Column_1586 Column_1587 Column_1588 Column_1589 Column_1590 Column_1591 Column_1592 Column_1593 Column_1594 Column_1595 Column_1596 Column_1597 Column_1598 Column_1599 Column_1600 Column_1601 Column_1602 Column_1603 Column_1604 Column_1605 Column_1606 Column_1607 Column_1608 Column_1609 Column_1610 Column_1611 Column_1612 Column_1613 Column_1614 Column_1615 Column_1616 Column_1617 Column_1618 Column_1619 Column_1620 Column_1621 Column_1622 Column_1623 Column_1624 Column_1625 Column_1626 Column_1627 Column_1628 Column_1629 Column_1630 Column_1631 Column_1632 Column_1633 Column_1634 Column_1635 Column_1636 Column_1637 Column_1638 Column_1639 Column_1640 Column_1641 Column_1642 Column_1643 Column_1644 Column_1645 Column_1646 Column_1647 Column_1648 Column_1649 Column_1650 Column_1651 Column_1652 Column_1653 Column_1654 Column_1655 Column_1656 Column_1657 Column_1658 Column_1659 Column_1660 Column_1661 Column_1662 Column_1663 Column_1664 Column_1665 Column_1666 Column_1667 Column_1668 Column_1669 Column_1670 Column_1671 Column_1672 Column_1673 Column_1674 Column_1675 Column_1676 Column_1677 Column_1678 Column_1679 Column_1680 Column_1681 Column_1682 Column_1683 Column_1684 Column_1685 Column_1686 Column_1687 Column_1688 Column_1689 Column_1690 Column_1691 Column_1692 Column_1693 Column_1694 Column_1695 Column_1696 Column_1697 Column_1698 Column_1699 Column_1700 Column_1701 Column_1702 Column_1703 Column_1704 Column_1705 Column_1706 Column_1707 Column_1708 Column_1709 Column_1710 Column_1711 Column_1712 Column_1713 Column_1714 Column_1715 Column_1716 Column_1717 Column_1718 Column_1719 Column_1720 Column_1721 Column_1722 Column_1723 Column_1724 Column_1725 Column_1726 Column_1727 Column_1728 Column_1729 Column_1730 Column_1731 Column_1732 Column_1733 Column_1734 Column_1735 Column_1736 Column_1737 Column_1738 Column_1739 Column_1740 Column_1741 Column_1742 Column_1743 Column_1744 Column_1745 Column_1746 Column_1747 Column_1748 Column_1749 Column_1750 Column_1751 Column_1752 Column_1753 Column_1754 Column_1755 Column_1756 Column_1757 Column_1758 Column_1759 Column_1760 Column_1761 Column_1762 Column_1763 Column_1764 Column_1765 Column_1766 Column_1767 Column_1768 Column_1769 Column_1770 Column_1771 Column_1772 Column_1773 Column_1774 Column_1775 Column_1776 Column_1777 Column_1778 Column_1779 Column_1780 Column_1781 Column_1782 Column_1783 Column_1784 Column_1785 Column_1786 Column_1787 Column_1788 Column_1789 Column_1790 Column_1791 Column_1792 Column_1793 Column_1794 Column_1795 Column_1796 Column_1797 Column_1798 Column_1799 Column_1800 Column_1801 Column_1802 Column_1803 Column_1804 Column_1805 Column_1806 Column_1807 Column_1808 Column_1809 Column_1810 Column_1811 Column_1812 Column_1813 Column_1814 Column_1815 Column_1816 Column_1817 Column_1818 Column_1819 Column_1820 Column_1821 Column_1822 Column_1823 Column_1824 Column_1825 Column_1826 Column_1827 Column_1828 Column_1829 Column_1830 Column_1831 Column_1832 Column_1833 Column_1834 Column_1835 Column_1836 Column_1837 Column_1838 Column_1839 Column_1840 Column_1841 Column_1842 Column_1843 Column_1844 Column_1845 Column_1846 Column_1847 Column_1848 Column_1849 Column_1850 Column_1851 Column_1852 Column_1853 Column_1854 Column_1855 Column_1856 Column_1857 Column_1858 Column_1859 Column_1860 Column_1861 Column_1862 Column_1863 Column_1864 Column_1865 Column_1866 Column_1867 Column_1868 Column_1869 Column_1870 Column_1871 Column_1872 Column_1873 Column_1874 Column_1875 Column_1876 Column_1877 Column_1878 Column_1879 Column_1880 Column_1881 Column_1882 Column_1883 Column_1884 Column_1885 Column_1886 Column_1887 Column_1888 Column_1889 Column_1890 Column_1891 Column_1892 Column_1893 Column_1894 Column_1895 Column_1896 Column_1897 Column_1898 Column_1899 Column_1900 Column_1901 Column_1902 Column_1903 Column_1904 Column_1905 Column_1906 Column_1907 Column_1908 Column_1909 Column_1910 Column_1911 Column_1912 Column_1913 Column_1914 Column_1915 Column_1916 Column_1917 Column_1918 Column_1919 Column_1920 Column_1921 Column_1922 Column_1923 Column_1924 Column_1925 Column_1926 Column_1927 Column_1928 Column_1929 Column_1930 Column_1931 Column_1932 Column_1933 Column_1934 Column_1935 Column_1936 Column_1937 Column_1938 Column_1939 Column_1940 Column_1941 Column_1942 Column_1943 Column_1944 Column_1945 Column_1946 Column_1947 Column_1948 Column_1949 Column_1950 Column_1951 Column_1952 Column_1953 Column_1954 Column_1955 Column_1956 Column_1957 Column_1958 Column_1959 Column_1960 Column_1961 Column_1962 Column_1963 Column_1964 Column_1965 Column_1966 Column_1967 Column_1968 Column_1969 Column_1970 Column_1971 Column_1972 Column_1973 Column_1974 Column_1975 Column_1976 Column_1977 Column_1978 Column_1979 Column_1980 Column_1981 Column_1982 Column_1983 Column_1984 Column_1985 Column_1986 Column_1987 Column_1988 Column_1989 Column_1990 Column_1991 Column_1992 Column_1993 Column_1994 Column_1995 Column_1996 Column_1997 Column_1998 Column_1999 Column_2000 Column_2001 Column_2002 Column_2003 Column_2004 Column_2005 Column_2006 Column_2007 Column_2008 Column_2009 Column_2010 Column_2011 Column_2012 Column_2013 Column_2014 Column_2015 Column_2016 Column_2017 Column_2018 Column_2019 Column_2020 Column_2021 Column_2022 Column_2023 Column_2024 Column_2025 Column_2026 Column_2027 Column_2028 Column_2029 Column_2030 Column_2031 Column_2032 Column_2033 Column_2034 Column_2035 Column_2036 Column_2037 Column_2038 Column_2039 Column_2040 Column_2041 Column_2042 Column_2043 Column_2044 Column_2045 Column_2046 Column_2047 Column_2048 Column_2049 Column_2050 Column_2051 Column_2052 Column_2053 Column_2054 Column_2055 Column_2056 Column_2057 Column_2058 Column_2059 Column_2060 Column_2061 Column_2062 Column_2063 Column_2064 Column_2065 Column_2066 Column_2067 Column_2068 Column_2069 Column_2070 Column_2071 Column_2072 Column_2073 Column_2074 Column_2075 Column_2076 Column_2077 Column_2078 Column_2079 Column_2080 Column_2081 Column_2082 Column_2083 Column_2084 Column_2085 Column_2086 Column_2087 Column_2088 Column_2089 Column_2090 Column_2091 Column_2092 Column_2093 Column_2094 Column_2095 Column_2096 Column_2097 Column_2098 Column_2099 Column_2100 Column_2101 Column_2102 Column_2103 Column_2104 Column_2105 Column_2106 Column_2107 Column_2108 Column_2109 Column_2110 Column_2111 Column_2112 Column_2113 Column_2114 Column_2115 Column_2116 Column_2117 Column_2118 Column_2119 Column_2120 Column_2121 Column_2122 Column_2123 Column_2124 Column_2125 Column_2126 Column_2127 Column_2128 Column_2129 Column_2130 Column_2131 Column_2132 Column_2133 Column_2134 Column_2135 Column_2136 Column_2137 Column_2138 Column_2139 Column_2140 Column_2141 Column_2142 Column_2143 Column_2144 Column_2145 Column_2146 Column_2147 Column_2148 Column_2149 Column_2150 Column_2151 Column_2152 Column_2153 Column_2154 Column_2155 Column_2156 Column_2157 Column_2158 Column_2159 Column_2160 Column_2161 Column_2162 Column_2163 Column_2164 Column_2165 Column_2166 Column_2167 Column_2168 Column_2169 Column_2170 Column_2171 Column_2172 Column_2173 Column_2174 Column_2175 Column_2176 Column_2177 Column_2178 Column_2179 Column_2180 Column_2181 Column_2182 Column_2183 Column_2184 Column_2185 Column_2186 Column_2187 Column_2188 Column_2189 Column_2190 Column_2191 Column_2192 Column_2193 Column_2194 Column_2195 Column_2196 Column_2197 Column_2198 Column_2199 Column_2200 Column_2201 Column_2202 Column_2203 Column_2204 Column_2205 Column_2206 Column_2207 Column_2208 Column_2209 Column_2210 Column_2211 Column_2212 Column_2213 Column_2214 Column_2215 Column_2216 Column_2217 Column_2218 Column_2219 Column_2220 Column_2221 Column_2222 Column_2223 Column_2224 Column_2225 Column_2226 Column_2227 Column_2228 Column_2229 Column_2230 Column_2231 Column_2232 Column_2233 Column_2234 Column_2235 Column_2236 Column_2237 Column_2238 Column_2239 Column_2240 Column_2241 Column_2242 Column_2243 Column_2244 Column_2245 Column_2246 Column_2247 Column_2248 Column_2249 Column_2250 Column_2251 Column_2252 Column_2253 Column_2254 Column_2255 Column_2256 Column_2257 Column_2258 Column_2259 Column_2260 Column_2261 Column_2262 Column_2263 Column_2264 Column_2265 Column_2266 Column_2267 Column_2268 Column_2269 Column_2270 Column_2271 Column_2272 Column_2273 Column_2274 Column_2275 Column_2276 Column_2277 Column_2278 Column_2279 Column_2280 Column_2281 Column_2282 Column_2283 Column_2284 Column_2285 Column_2286 Column_2287 Column_2288 Column_2289 Column_2290 Column_2291 Column_2292 Column_2293 Column_2294 Column_2295 Column_2296 Column_2297 Column_2298 Column_2299 Column_2300 Column_2301 Column_2302 Column_2303 Column_2304 Column_2305 Column_2306 Column_2307 Column_2308 Column_2309 Column_2310 Column_2311 Column_2312 Column_2313 Column_2314 Column_2315 Column_2316 Column_2317 Column_2318 Column_2319 Column_2320 Column_2321 Column_2322 Column_2323 Column_2324 Column_2325 Column_2326 Column_2327 Column_2328 Column_2329 Column_2330 Column_2331 Column_2332 Column_2333 Column_2334 Column_2335 Column_2336 Column_2337 Column_2338 Column_2339 Column_2340 Column_2341 Column_2342 Column_2343 Column_2344 Column_2345 Column_2346 Column_2347 Column_2348 Column_2349 Column_2350 Column_2351 Column_2352 Column_2353 Column_2354 Column_2355 Column_2356 Column_2357 Column_2358 Column_2359 Column_2360 Column_2361 Column_2362 Column_2363 Column_2364 Column_2365 Column_2366 Column_2367 Column_2368 Column_2369 Column_2370 Column_2371 Column_2372 Column_2373 Column_2374 Column_2375 Column_2376 Column_2377 Column_2378 Column_2379 Column_2380 Column_2381 Column_2382 Column_2383 Column_2384 Column_2385 Column_2386 Column_2387 Column_2388 Column_2389 Column_2390 Column_2391 Column_2392 Column_2393 Column_2394 Column_2395 Column_2396 Column_2397 Column_2398 Column_2399 Column_2400 Column_2401 Column_2402 Column_2403 Column_2404 Column_2405 Column_2406 Column_2407 Column_2408 Column_2409 Column_2410 Column_2411 Column_2412 Column_2413 Column_2414 Column_2415 Column_2416 Column_2417 Column_2418 Column_2419 Column_2420 Column_2421 Column_2422 Column_2423 Column_2424 Column_2425 Column_2426 Column_2427 Column_2428 Column_2429 Column_2430 Column_2431 Column_2432 Column_2433 Column_2434 Column_2435 Column_2436 Column_2437 Column_2438 Column_2439 Column_2440 Column_2441 Column_2442 Column_2443 Column_2444 Column_2445 Column_2446 Column_2447 Column_2448 Column_2449 Column_2450 Column_2451 Column_2452 Column_2453 Column_2454 Column_2455 Column_2456 Column_2457 Column_2458 Column_2459 Column_2460 Column_2461 Column_2462 Column_2463 Column_2464 Column_2465 Column_2466 Column_2467 Column_2468 Column_2469 Column_2470 Column_2471 Column_2472 Column_2473 Column_2474 Column_2475 Column_2476 Column_2477 Column_2478 Column_2479 Column_2480 Column_2481 Column_2482 Column_2483 Column_2484 Column_2485 Column_2486 Column_2487 Column_2488 Column_2489 Column_2490 Column_2491 Column_2492 Column_2493 Column_2494 Column_2495 Column_2496 Column_2497 Column_2498 Column_2499 Column_2500 Column_2501 Column_2502 Column_2503 Column_2504 Column_2505 Column_2506 Column_2507 Column_2508 Column_2509 Column_2510 Column_2511 Column_2512 Column_2513 Column_2514 Column_2515 Column_2516 Column_2517 Column_2518 Column_2519 Column_2520 Column_2521 Column_2522 Column_2523 Column_2524 Column_2525 Column_2526 Column_2527 Column_2528 Column_2529 Column_2530 Column_2531 Column_2532 Column_2533 Column_2534 Column_2535 Column_2536 Column_2537 Column_2538 Column_2539 Column_2540 Column_2541 Column_2542 Column_2543 Column_2544 Column_2545 Column_2546 Column_2547 Column_2548 Column_2549 Column_2550 Column_2551 Column_2552 Column_2553 Column_2554 Column_2555 Column_2556 Column_2557 Column_2558 Column_2559 Column_2560 Column_2561 Column_2562 Column_2563 Column_2564 Column_2565 Column_2566 Column_2567 Column_2568 Column_2569 Column_2570 Column_2571 Column_2572 Column_2573 Column_2574 Column_2575 Column_2576 Column_2577 Column_2578 Column_2579 Column_2580 Column_2581 Column_2582 Column_2583 Column_2584 Column_2585 Column_2586 Column_2587 Column_2588 Column_2589 Column_2590 Column_2591 Column_2592 Column_2593 Column_2594 Column_2595 Column_2596 Column_2597 Column_2598 Column_2599 Column_2600 Column_2601 Column_2602 Column_2603 Column_2604 Column_2605 Column_2606 Column_2607 Column_2608 Column_2609 Column_2610 Column_2611 Column_2612 Column_2613 Column_2614 Column_2615 Column_2616 Column_2617 Column_2618 Column_2619 Column_2620 Column_2621 Column_2622 Column_2623 Column_2624 Column_2625 Column_2626 Column_2627 Column_2628 Column_2629 Column_2630 Column_2631 Column_2632 Column_2633 Column_2634 Column_2635 Column_2636 Column_2637 Column_2638 Column_2639 Column_2640 Column_2641 Column_2642 Column_2643 Column_2644 Column_2645 Column_2646 Column_2647 Column_2648 Column_2649 Column_2650 Column_2651 Column_2652 Column_2653 Column_2654 Column_2655 Column_2656 Column_2657 Column_2658 Column_2659 Column_2660 Column_2661 Column_2662 Column_2663 Column_2664 Column_2665 Column_2666 Column_2667 Column_2668 Column_2669 Column_2670 Column_2671 Column_2672 Column_2673 Column_2674 Column_2675 Column_2676 Column_2677 Column_2678 Column_2679 Column_2680 Column_2681 Column_2682 Column_2683 Column_2684 Column_2685 Column_2686 Column_2687 Column_2688 Column_2689 Column_2690 Column_2691 Column_2692 Column_2693 Column_2694 Column_2695 Column_2696 Column_2697 Column_2698 Column_2699 Column_2700 Column_2701 Column_2702 Column_2703 Column_2704 Column_2705 Column_2706 Column_2707 Column_2708 Column_2709 Column_2710 Column_2711 Column_2712 Column_2713 Column_2714 Column_2715 Column_2716 Column_2717 Column_2718 Column_2719 Column_2720 Column_2721 Column_2722 Column_2723 Column_2724 Column_2725 Column_2726 Column_2727 Column_2728 Column_2729 Column_2730 Column_2731 Column_2732 Column_2733 Column_2734 Column_2735 Column_2736 Column_2737 Column_2738 Column_2739 Column_2740 Column_2741 Column_2742 Column_2743 Column_2744 Column_2745 Column_2746 Column_2747 Column_2748 Column_2749 Column_2750 Column_2751 Column_2752 Column_2753 Column_2754 Column_2755 Column_2756 Column_2757 Column_2758 Column_2759 Column_2760 Column_2761 Column_2762 Column_2763 Column_2764 Column_2765 Column_2766 Column_2767 Column_2768 Column_2769 Column_2770 Column_2771 Column_2772 Column_2773 Column_2774 Column_2775 Column_2776 Column_2777 Column_2778 Column_2779 Column_2780 Column_2781 Column_2782 Column_2783 Column_2784 Column_2785 Column_2786 Column_2787 Column_2788 Column_2789 Column_2790 Column_2791 Column_2792 Column_2793 Column_2794 Column_2795 Column_2796 Column_2797 Column_2798 Column_2799 Column_2800 Column_2801 Column_2802 Column_2803 Column_2804 Column_2805 Column_2806 Column_2807 Column_2808 Column_2809 Column_2810 Column_2811 Column_2812 Column_2813 Column_2814 Column_2815 Column_2816 Column_2817 Column_2818 Column_2819 Column_2820 Column_2821 Column_2822 Column_2823 Column_2824 Column_2825 Column_2826 Column_2827 Column_2828 Column_2829 Column_2830 Column_2831 Column_2832 Column_2833 Column_2834 Column_2835 Column_2836 Column_2837 Column_2838 Column_2839 Column_2840 Column_2841 Column_2842 Column_2843 Column_2844 Column_2845 Column_2846 Column_2847 Column_2848 Column_2849 Column_2850 Column_2851 Column_2852 Column_2853 Column_2854 Column_2855 Column_2856 Column_2857 Column_2858 Column_2859 Column_2860 Column_2861 Column_2862 Column_2863 Column_2864 Column_2865 Column_2866 Column_2867 Column_2868 Column_2869 Column_2870 Column_2871 Column_2872 Column_2873 Column_2874 Column_2875 Column_2876 Column_2877 Column_2878 Column_2879 Column_2880 Column_2881 Column_2882 Column_2883 Column_2884 Column_2885 Column_2886 Column_2887 Column_2888 Column_2889 Column_2890 Column_2891 Column_2892 Column_2893 Column_2894 Column_2895 Column_2896 Column_2897 Column_2898 Column_2899 Column_2900 Column_2901 Column_2902 Column_2903 Column_2904 Column_2905 Column_2906 Column_2907 Column_2908 Column_2909 Column_2910 Column_2911 Column_2912 Column_2913 Column_2914 Column_2915 Column_2916 Column_2917 Column_2918 Column_2919 Column_2920 Column_2921 Column_2922 Column_2923 Column_2924 Column_2925 Column_2926 Column_2927 Column_2928 Column_2929 Column_2930 Column_2931 Column_2932 Column_2933 Column_2934 Column_2935 Column_2936 Column_2937 Column_2938 Column_2939 Column_2940 Column_2941 Column_2942 Column_2943 Column_2944 Column_2945 Column_2946 Column_2947 Column_2948 Column_2949 Column_2950 Column_2951 Column_2952 Column_2953 Column_2954 Column_2955 Column_2956 Column_2957 Column_2958 Column_2959 Column_2960 Column_2961 Column_2962 Column_2963 Column_2964 Column_2965 Column_2966 Column_2967 Column_2968 Column_2969 Column_2970 Column_2971 Column_2972 Column_2973 Column_2974 Column_2975 Column_2976 Column_2977 Column_2978 Column_2979 Column_2980 Column_2981 Column_2982 Column_2983 Column_2984 Column_2985 Column_2986 Column_2987 Column_2988 Column_2989 Column_2990 Column_2991 Column_2992 Column_2993 Column_2994 Column_2995 Column_2996 Column_2997 Column_2998 Column_2999 Column_3000 Column_3001 Column_3002 Column_3003 Column_3004 Column_3005 Column_3006 Column_3007 Column_3008 Column_3009 Column_3010 Column_3011 Column_3012 Column_3013 Column_3014 Column_3015 Column_3016 Column_3017 Column_3018 Column_3019 Column_3020 Column_3021 Column_3022 Column_3023 Column_3024 Column_3025 Column_3026 Column_3027 Column_3028 Column_3029 Column_3030 Column_3031 Column_3032 Column_3033 Column_3034 Column_3035 Column_3036 Column_3037 Column_3038 Column_3039 Column_3040 Column_3041 Column_3042 Column_3043 Column_3044 Column_3045 Column_3046 Column_3047 Column_3048 Column_3049 Column_3050 Column_3051 Column_3052 Column_3053 Column_3054 Column_3055 Column_3056 Column_3057 Column_3058 Column_3059 Column_3060 Column_3061 Column_3062 Column_3063 Column_3064 Column_3065 Column_3066 Column_3067 Column_3068 Column_3069 Column_3070 Column_3071 Column_3072 Column_3073 Column_3074 Column_3075 Column_3076 Column_3077 Column_3078 Column_3079 Column_3080 Column_3081 Column_3082 Column_3083 Column_3084 Column_3085 Column_3086 Column_3087 Column_3088 Column_3089 Column_3090 Column_3091 Column_3092 Column_3093 Column_3094 Column_3095 Column_3096 Column_3097 Column_3098 Column_3099 Column_3100 Column_3101 Column_3102 Column_3103 Column_3104 Column_3105 Column_3106 Column_3107 Column_3108 Column_3109 Column_3110 Column_3111 Column_3112 Column_3113 Column_3114 Column_3115 Column_3116 Column_3117 Column_3118 Column_3119 Column_3120 Column_3121 Column_3122 Column_3123 Column_3124 Column_3125 Column_3126 Column_3127 Column_3128 Column_3129 Column_3130 Column_3131 Column_3132 Column_3133 Column_3134 Column_3135 Column_3136 Column_3137 Column_3138 Column_3139 Column_3140 Column_3141 Column_3142 Column_3143 Column_3144 Column_3145 Column_3146 Column_3147 Column_3148 Column_3149 Column_3150 Column_3151 Column_3152 Column_3153 Column_3154 Column_3155 Column_3156 Column_3157 Column_3158 Column_3159 Column_3160 Column_3161 Column_3162 Column_3163 Column_3164 Column_3165 Column_3166 Column_3167 Column_3168 Column_3169 Column_3170 Column_3171 Column_3172 Column_3173 Column_3174 Column_3175 Column_3176 Column_3177 Column_3178 Column_3179 Column_3180 Column_3181 Column_3182 Column_3183 Column_3184 Column_3185 Column_3186 Column_3187 Column_3188 Column_3189 Column_3190 Column_3191 Column_3192 Column_3193 Column_3194 Column_3195 Column_3196 Column_3197 Column_3198 Column_3199 Column_3200 Column_3201 Column_3202 Column_3203 Column_3204 Column_3205 Column_3206 Column_3207 Column_3208 Column_3209 Column_3210 Column_3211 Column_3212 Column_3213 Column_3214 Column_3215 Column_3216 Column_3217 Column_3218 Column_3219 Column_3220 Column_3221 Column_3222 Column_3223 Column_3224 Column_3225 Column_3226 Column_3227 Column_3228 Column_3229 Column_3230 Column_3231 Column_3232 Column_3233 Column_3234 Column_3235 Column_3236 Column_3237 Column_3238 Column_3239 Column_3240 Column_3241 Column_3242 Column_3243 Column_3244 Column_3245 Column_3246 Column_3247 Column_3248 Column_3249 Column_3250 Column_3251 Column_3252 Column_3253 Column_3254 Column_3255 Column_3256 Column_3257 Column_3258 Column_3259 Column_3260 Column_3261 Column_3262 Column_3263 Column_3264 Column_3265 Column_3266 Column_3267 Column_3268 Column_3269 Column_3270 Column_3271 Column_3272 Column_3273 Column_3274 Column_3275 Column_3276 Column_3277 Column_3278 Column_3279 Column_3280 Column_3281 Column_3282 Column_3283 Column_3284 Column_3285 Column_3286 Column_3287 Column_3288 Column_3289 Column_3290 Column_3291 Column_3292 Column_3293 Column_3294 Column_3295 Column_3296 Column_3297 Column_3298 Column_3299 Column_3300 Column_3301 Column_3302 Column_3303 Column_3304 Column_3305 Column_3306 Column_3307 Column_3308 Column_3309 Column_3310 Column_3311 Column_3312 Column_3313 Column_3314 Column_3315 Column_3316 Column_3317 Column_3318 Column_3319 Column_3320 Column_3321 Column_3322 Column_3323 Column_3324 Column_3325 Column_3326 Column_3327 Column_3328 Column_3329 Column_3330 Column_3331 Column_3332 Column_3333 Column_3334 Column_3335 Column_3336 Column_3337 Column_3338 Column_3339 Column_3340 Column_3341 Column_3342 Column_3343 Column_3344 Column_3345 Column_3346 Column_3347 Column_3348 Column_3349 Column_3350 Column_3351 Column_3352 Column_3353 Column_3354 Column_3355 Column_3356 Column_3357 Column_3358 Column_3359 Column_3360 Column_3361 Column_3362 Column_3363 Column_3364 Column_3365 Column_3366 Column_3367 Column_3368 Column_3369 Column_3370 Column_3371 Column_3372 Column_3373 Column_3374 Column_3375 Column_3376 Column_3377 Column_3378 Column_3379 Column_3380 Column_3381 Column_3382 Column_3383 Column_3384 Column_3385 Column_3386 Column_3387 Column_3388 Column_3389 Column_3390 Column_3391 Column_3392 Column_3393 Column_3394 Column_3395 Column_3396 Column_3397 Column_3398 Column_3399 Column_3400 Column_3401 Column_3402 Column_3403 Column_3404 Column_3405 Column_3406 Column_3407 Column_3408 Column_3409 Column_3410 Column_3411 Column_3412 Column_3413 Column_3414 Column_3415 Column_3416 Column_3417 Column_3418 Column_3419 Column_3420 Column_3421 Column_3422 Column_3423 Column_3424 Column_3425 Column_3426 Column_3427 Column_3428 Column_3429 Column_3430 Column_3431 Column_3432 Column_3433 Column_3434 Column_3435 Column_3436 Column_3437 Column_3438 Column_3439 Column_3440 Column_3441 Column_3442 Column_3443 Column_3444 Column_3445 Column_3446 Column_3447 Column_3448 Column_3449 Column_3450 Column_3451 Column_3452 Column_3453 Column_3454 Column_3455 Column_3456 Column_3457 Column_3458 Column_3459 Column_3460 Column_3461 Column_3462 Column_3463 Column_3464 Column_3465 Column_3466 Column_3467 Column_3468 Column_3469 Column_3470 Column_3471 Column_3472 Column_3473 Column_3474 Column_3475 Column_3476 Column_3477 Column_3478 Column_3479 Column_3480 Column_3481 Column_3482 Column_3483 Column_3484 Column_3485 Column_3486 Column_3487 Column_3488 Column_3489 Column_3490 Column_3491 Column_3492 Column_3493 Column_3494 Column_3495 Column_3496 Column_3497 Column_3498 Column_3499 Column_3500 Column_3501 Column_3502 Column_3503 Column_3504 Column_3505 Column_3506 Column_3507 Column_3508 Column_3509 Column_3510 Column_3511 Column_3512 Column_3513 Column_3514 Column_3515 Column_3516 Column_3517 Column_3518 Column_3519 Column_3520 Column_3521 Column_3522 Column_3523 Column_3524 Column_3525 Column_3526 Column_3527 Column_3528 Column_3529 Column_3530 Column_3531 Column_3532 Column_3533 Column_3534 Column_3535 Column_3536 Column_3537 Column_3538 Column_3539 Column_3540 Column_3541 Column_3542 Column_3543 Column_3544 Column_3545 Column_3546 Column_3547 Column_3548 Column_3549 Column_3550 Column_3551 Column_3552 Column_3553 Column_3554 Column_3555 Column_3556 Column_3557 Column_3558 Column_3559 Column_3560 Column_3561 Column_3562 Column_3563 Column_3564 Column_3565 Column_3566 Column_3567 Column_3568 Column_3569 Column_3570 Column_3571 Column_3572 Column_3573 Column_3574 Column_3575 Column_3576 Column_3577 Column_3578 Column_3579 Column_3580 Column_3581 Column_3582 Column_3583 Column_3584 Column_3585 Column_3586 Column_3587 Column_3588 Column_3589 Column_3590 Column_3591 Column_3592 Column_3593 Column_3594 Column_3595 Column_3596 Column_3597 Column_3598 Column_3599 Column_3600 Column_3601 Column_3602 Column_3603 Column_3604 Column_3605 Column_3606 Column_3607 Column_3608 Column_3609 Column_3610 Column_3611 Column_3612 Column_3613 Column_3614 Column_3615 Column_3616 Column_3617 Column_3618 Column_3619 Column_3620 Column_3621 Column_3622 Column_3623 Column_3624 Column_3625 Column_3626 Column_3627 Column_3628 Column_3629 Column_3630 Column_3631 Column_3632 Column_3633 Column_3634 Column_3635 Column_3636 Column_3637 Column_3638 Column_3639 Column_3640 Column_3641 Column_3642 Column_3643 Column_3644 Column_3645 Column_3646 Column_3647 Column_3648 Column_3649 Column_3650 Column_3651 Column_3652 Column_3653 Column_3654 Column_3655 Column_3656 Column_3657 Column_3658 Column_3659 Column_3660 Column_3661 Column_3662 Column_3663 Column_3664 Column_3665 Column_3666 Column_3667 Column_3668 Column_3669 Column_3670 Column_3671 Column_3672 Column_3673 Column_3674 Column_3675 Column_3676 Column_3677 Column_3678 Column_3679 Column_3680 Column_3681 Column_3682 Column_3683 Column_3684 Column_3685 Column_3686 Column_3687 Column_3688 Column_3689 Column_3690 Column_3691 Column_3692 Column_3693 Column_3694 Column_3695 Column_3696 Column_3697 Column_3698 Column_3699 Column_3700 Column_3701 Column_3702 Column_3703 Column_3704 Column_3705 Column_3706 Column_3707 Column_3708 Column_3709 Column_3710 Column_3711 Column_3712 Column_3713 Column_3714 Column_3715 Column_3716 Column_3717 Column_3718 Column_3719 Column_3720 Column_3721 Column_3722 Column_3723 Column_3724 Column_3725 Column_3726 Column_3727 Column_3728 Column_3729 Column_3730 Column_3731 Column_3732 Column_3733 Column_3734 Column_3735 Column_3736 Column_3737 Column_3738 Column_3739 Column_3740 Column_3741 Column_3742 Column_3743 Column_3744 Column_3745 Column_3746 Column_3747 Column_3748 Column_3749 Column_3750 Column_3751 Column_3752 Column_3753 Column_3754 Column_3755 Column_3756 Column_3757 Column_3758 Column_3759 Column_3760 Column_3761 Column_3762 Column_3763 Column_3764 Column_3765 Column_3766 Column_3767 Column_3768 Column_3769 Column_3770 Column_3771 Column_3772 Column_3773 Column_3774 Column_3775 Column_3776 Column_3777 Column_3778 Column_3779 Column_3780 Column_3781 Column_3782 Column_3783 Column_3784 Column_3785 Column_3786 Column_3787 Column_3788 Column_3789 Column_3790 Column_3791 Column_3792 Column_3793 Column_3794 Column_3795 Column_3796 Column_3797 Column_3798 Column_3799 Column_3800 Column_3801 Column_3802 Column_3803 Column_3804 Column_3805 Column_3806 Column_3807 Column_3808 Column_3809 Column_3810 Column_3811 Column_3812 Column_3813 Column_3814 Column_3815 Column_3816 Column_3817 Column_3818 Column_3819 Column_3820 Column_3821 Column_3822 Column_3823 Column_3824 Column_3825 Column_3826 Column_3827 Column_3828 Column_3829 Column_3830 Column_3831 Column_3832 Column_3833 Column_3834 Column_3835 Column_3836 Column_3837 Column_3838 Column_3839 Column_3840 Column_3841 Column_3842 Column_3843 Column_3844 Column_3845 Column_3846 Column_3847 Column_3848 Column_3849 Column_3850 Column_3851 Column_3852 Column_3853 Column_3854 Column_3855 Column_3856 Column_3857 Column_3858 Column_3859 Column_3860 Column_3861 Column_3862 Column_3863 Column_3864 Column_3865 Column_3866 Column_3867 Column_3868 Column_3869 Column_3870 Column_3871 Column_3872 Column_3873 Column_3874 Column_3875 Column_3876 Column_3877 Column_3878 Column_3879 Column_3880 Column_3881 Column_3882 Column_3883 Column_3884 Column_3885 Column_3886 Column_3887 Column_3888 Column_3889 Column_3890 Column_3891 Column_3892 Column_3893 Column_3894 Column_3895 Column_3896 Column_3897 Column_3898 Column_3899 Column_3900 Column_3901 Column_3902 Column_3903 Column_3904 Column_3905 Column_3906 Column_3907 Column_3908 Column_3909 Column_3910 Column_3911 Column_3912 Column_3913 Column_3914 Column_3915 Column_3916 Column_3917 Column_3918 Column_3919 Column_3920 Column_3921 Column_3922 Column_3923 Column_3924 Column_3925 Column_3926 Column_3927 Column_3928 Column_3929 Column_3930 Column_3931 Column_3932 Column_3933 Column_3934 Column_3935 Column_3936 Column_3937 Column_3938 Column_3939 Column_3940 Column_3941 Column_3942 Column_3943 Column_3944 Column_3945 Column_3946 Column_3947 Column_3948 Column_3949 Column_3950 Column_3951 Column_3952 Column_3953 Column_3954 Column_3955 Column_3956 Column_3957 Column_3958 Column_3959 Column_3960 Column_3961 Column_3962 Column_3963 Column_3964 Column_3965 Column_3966 Column_3967 Column_3968 Column_3969 Column_3970 Column_3971 Column_3972 Column_3973 Column_3974 Column_3975 Column_3976 Column_3977 Column_3978 Column_3979 Column_3980 Column_3981 Column_3982 Column_3983 Column_3984 Column_3985 Column_3986 Column_3987 Column_3988 Column_3989 Column_3990 Column_3991 Column_3992 Column_3993 Column_3994 Column_3995 Column_3996 Column_3997 Column_3998 Column_3999 Column_4000 Column_4001 Column_4002 Column_4003 Column_4004 Column_4005 Column_4006 Column_4007 Column_4008 Column_4009 Column_4010 Column_4011 Column_4012 Column_4013 Column_4014 Column_4015 Column_4016 Column_4017 Column_4018 Column_4019 Column_4020 Column_4021 Column_4022 Column_4023 Column_4024 Column_4025 Column_4026 Column_4027 Column_4028 Column_4029 Column_4030 Column_4031 Column_4032 Column_4033 Column_4034 Column_4035 Column_4036 Column_4037 Column_4038 Column_4039 Column_4040 Column_4041 Column_4042 Column_4043 Column_4044 Column_4045 Column_4046 Column_4047 Column_4048 Column_4049 Column_4050 Column_4051 Column_4052 Column_4053 Column_4054 Column_4055 Column_4056 Column_4057 Column_4058 Column_4059 Column_4060 Column_4061 Column_4062 Column_4063 Column_4064 Column_4065 Column_4066 Column_4067 Column_4068 Column_4069 Column_4070 Column_4071 Column_4072 Column_4073 Column_4074 Column_4075 Column_4076 Column_4077 Column_4078 Column_4079 Column_4080 Column_4081 Column_4082 Column_4083 Column_4084 Column_4085 Column_4086 Column_4087 Column_4088 Column_4089 Column_4090 Column_4091 Column_4092 Column_4093 Column_4094 Column_4095 Column_4096 Column_4097 Column_4098 Column_4099 Column_4100 Column_4101 Column_4102 Column_4103 Column_4104 Column_4105 Column_4106 Column_4107 Column_4108 Column_4109 Column_4110 Column_4111 Column_4112 Column_4113 Column_4114 Column_4115 Column_4116 Column_4117 Column_4118 Column_4119 Column_4120 Column_4121 Column_4122 Column_4123 Column_4124 Column_4125 Column_4126 Column_4127 Column_4128 Column_4129 Column_4130 Column_4131 Column_4132 Column_4133 Column_4134 Column_4135 Column_4136 Column_4137 Column_4138 Column_4139 Column_4140 Column_4141 Column_4142 Column_4143 Column_4144 Column_4145 Column_4146 Column_4147 Column_4148 Column_4149 Column_4150 Column_4151 Column_4152 Column_4153 Column_4154 Column_4155 Column_4156 Column_4157 Column_4158 Column_4159 Column_4160 Column_4161 Column_4162 Column_4163 Column_4164 Column_4165 Column_4166 Column_4167 Column_4168 Column_4169 Column_4170 Column_4171 Column_4172 Column_4173 Column_4174 Column_4175 Column_4176 Column_4177 Column_4178 Column_4179 Column_4180 Column_4181 Column_4182 Column_4183 Column_4184 Column_4185 Column_4186 Column_4187 Column_4188 Column_4189 Column_4190 Column_4191 Column_4192 Column_4193 Column_4194 Column_4195 Column_4196 Column_4197 Column_4198 Column_4199 Column_4200 Column_4201 Column_4202 Column_4203 Column_4204 Column_4205 Column_4206 Column_4207 Column_4208 Column_4209 Column_4210 Column_4211 Column_4212 Column_4213 Column_4214 Column_4215 Column_4216 Column_4217 Column_4218 Column_4219 Column_4220 Column_4221 Column_4222 Column_4223 Column_4224 Column_4225 Column_4226 Column_4227 Column_4228 Column_4229 Column_4230 Column_4231 Column_4232 Column_4233 Column_4234 Column_4235 Column_4236 Column_4237 Column_4238 Column_4239 Column_4240 Column_4241 Column_4242 Column_4243 Column_4244 Column_4245 Column_4246 Column_4247 Column_4248 Column_4249 Column_4250 Column_4251 Column_4252 Column_4253 Column_4254 Column_4255 Column_4256 Column_4257 Column_4258 Column_4259 Column_4260 Column_4261 Column_4262 Column_4263 Column_4264 Column_4265 Column_4266 Column_4267 Column_4268 Column_4269 Column_4270 Column_4271 Column_4272 Column_4273 Column_4274 Column_4275 Column_4276 Column_4277 Column_4278 Column_4279 Column_4280 Column_4281 Column_4282 Column_4283 Column_4284 Column_4285 Column_4286 Column_4287 Column_4288 Column_4289 Column_4290 Column_4291 Column_4292 Column_4293 Column_4294 Column_4295 Column_4296 Column_4297 Column_4298 Column_4299 Column_4300 Column_4301 Column_4302 Column_4303 Column_4304 Column_4305 Column_4306 Column_4307 Column_4308 Column_4309 Column_4310 Column_4311 Column_4312 Column_4313 Column_4314 Column_4315 Column_4316 Column_4317 Column_4318 Column_4319 Column_4320 Column_4321 Column_4322 Column_4323 Column_4324 Column_4325 Column_4326 Column_4327 Column_4328 Column_4329 Column_4330 Column_4331 Column_4332 Column_4333 Column_4334 Column_4335 Column_4336 Column_4337 Column_4338 Column_4339 Column_4340 Column_4341 Column_4342 Column_4343 Column_4344 Column_4345 Column_4346 Column_4347 Column_4348 Column_4349 Column_4350 Column_4351 Column_4352 Column_4353 Column_4354 Column_4355 Column_4356 Column_4357 Column_4358 Column_4359 Column_4360 Column_4361 Column_4362 Column_4363 Column_4364 Column_4365 Column_4366 Column_4367 Column_4368 Column_4369 Column_4370 Column_4371 Column_4372 Column_4373 Column_4374 Column_4375 Column_4376 Column_4377 Column_4378 Column_4379 Column_4380 Column_4381 Column_4382 Column_4383 Column_4384 Column_4385 Column_4386 Column_4387 Column_4388 Column_4389 Column_4390 Column_4391 Column_4392 Column_4393 Column_4394 Column_4395 Column_4396 Column_4397 Column_4398 Column_4399 Column_4400 Column_4401 Column_4402 Column_4403 Column_4404 Column_4405 Column_4406 Column_4407 Column_4408 Column_4409 Column_4410 Column_4411 Column_4412 Column_4413 Column_4414 Column_4415 Column_4416 Column_4417 Column_4418 Column_4419 Column_4420 Column_4421 Column_4422 Column_4423 Column_4424 Column_4425 Column_4426 Column_4427 Column_4428 Column_4429 Column_4430 Column_4431 Column_4432 Column_4433 Column_4434 Column_4435 Column_4436 Column_4437 Column_4438 Column_4439 Column_4440 Column_4441 Column_4442 Column_4443 Column_4444 Column_4445 Column_4446 Column_4447 Column_4448 Column_4449 Column_4450 Column_4451 Column_4452 Column_4453 Column_4454 Column_4455 Column_4456 Column_4457 Column_4458 Column_4459 Column_4460 Column_4461 Column_4462 Column_4463 Column_4464 Column_4465 Column_4466 Column_4467 Column_4468 Column_4469 Column_4470 Column_4471 Column_4472 Column_4473 Column_4474 Column_4475 Column_4476 Column_4477 Column_4478 Column_4479 Column_4480 Column_4481 Column_4482 Column_4483 Column_4484 Column_4485 Column_4486 Column_4487 Column_4488 Column_4489 Column_4490 Column_4491 Column_4492 Column_4493 Column_4494 Column_4495 Column_4496 Column_4497 Column_4498 Column_4499 Column_4500 Column_4501 Column_4502 Column_4503 Column_4504 Column_4505 Column_4506 Column_4507 Column_4508 Column_4509 Column_4510 Column_4511 Column_4512 Column_4513 Column_4514 Column_4515 Column_4516 Column_4517 Column_4518 Column_4519 Column_4520 Column_4521 Column_4522 Column_4523 Column_4524 Column_4525 Column_4526 Column_4527 Column_4528 Column_4529 Column_4530 Column_4531 Column_4532 Column_4533 Column_4534 Column_4535 Column_4536 Column_4537 Column_4538 Column_4539 Column_4540 Column_4541 Column_4542 Column_4543 Column_4544 Column_4545 Column_4546 Column_4547 Column_4548 Column_4549 Column_4550 Column_4551 Column_4552 Column_4553 Column_4554 Column_4555 Column_4556 Column_4557 Column_4558 Column_4559 Column_4560 Column_4561 Column_4562 Column_4563 Column_4564 Column_4565 Column_4566 Column_4567 Column_4568 Column_4569 Column_4570 Column_4571 Column_4572 Column_4573 Column_4574 Column_4575 Column_4576 Column_4577 Column_4578 Column_4579 Column_4580 Column_4581 Column_4582 Column_4583 Column_4584 Column_4585 Column_4586 Column_4587 Column_4588 Column_4589 Column_4590 Column_4591 Column_4592 Column_4593 Column_4594 Column_4595 Column_4596 Column_4597 Column_4598 Column_4599 Column_4600 Column_4601 Column_4602 Column_4603 Column_4604 Column_4605 Column_4606 Column_4607 Column_4608 Column_4609 Column_4610 Column_4611 Column_4612 Column_4613 Column_4614 Column_4615 Column_4616 Column_4617 Column_4618 Column_4619 Column_4620 Column_4621 Column_4622 Column_4623 Column_4624 Column_4625 Column_4626 Column_4627 Column_4628 Column_4629 Column_4630 Column_4631 Column_4632 Column_4633 Column_4634 Column_4635 Column_4636 Column_4637 Column_4638 Column_4639 Column_4640 Column_4641 Column_4642 Column_4643 Column_4644 Column_4645 Column_4646 Column_4647 Column_4648 Column_4649 Column_4650 Column_4651 Column_4652 Column_4653 Column_4654 Column_4655 Column_4656 Column_4657 Column_4658 Column_4659 Column_4660 Column_4661 Column_4662 Column_4663 Column_4664 Column_4665 Column_4666 Column_4667 Column_4668 Column_4669 Column_4670 Column_4671 Column_4672 Column_4673 Column_4674 Column_4675 Column_4676 Column_4677 Column_4678 Column_4679 Column_4680 Column_4681 Column_4682 Column_4683 Column_4684 Column_4685 Column_4686 Column_4687 Column_4688 Column_4689 Column_4690 Column_4691 Column_4692 Column_4693 Column_4694 Column_4695 Column_4696 Column_4697 Column_4698 Column_4699 Column_4700 Column_4701 Column_4702 Column_4703 Column_4704 Column_4705 Column_4706 Column_4707 Column_4708 Column_4709 Column_4710 Column_4711 Column_4712 Column_4713 Column_4714 Column_4715 Column_4716 Column_4717 Column_4718 Column_4719 Column_4720 Column_4721 Column_4722 Column_4723 Column_4724 Column_4725 Column_4726 Column_4727 Column_4728 Column_4729 Column_4730 Column_4731 Column_4732 Column_4733 Column_4734 Column_4735 Column_4736 Column_4737 Column_4738 Column_4739 Column_4740 Column_4741 Column_4742 Column_4743 Column_4744 Column_4745 Column_4746 Column_4747 Column_4748 Column_4749 Column_4750 Column_4751 Column_4752 Column_4753 Column_4754 Column_4755 Column_4756 Column_4757 Column_4758 Column_4759 Column_4760 Column_4761 Column_4762 Column_4763 Column_4764 Column_4765 Column_4766 Column_4767 Column_4768 Column_4769 Column_4770 Column_4771 Column_4772 Column_4773 Column_4774 Column_4775 Column_4776 Column_4777 Column_4778 Column_4779 Column_4780 Column_4781 Column_4782 Column_4783 Column_4784 Column_4785 Column_4786 Column_4787 Column_4788 Column_4789 Column_4790 Column_4791 Column_4792 Column_4793 Column_4794 Column_4795 Column_4796 Column_4797 Column_4798 Column_4799 Column_4800 Column_4801 Column_4802 Column_4803 Column_4804 Column_4805 Column_4806 Column_4807 Column_4808 Column_4809 Column_4810 Column_4811 Column_4812 Column_4813 Column_4814 Column_4815 Column_4816 Column_4817 Column_4818 Column_4819 Column_4820 Column_4821 Column_4822 Column_4823 Column_4824 Column_4825 Column_4826 Column_4827 Column_4828 Column_4829 Column_4830 Column_4831 Column_4832 Column_4833 Column_4834 Column_4835 Column_4836 Column_4837 Column_4838 Column_4839 Column_4840 Column_4841 Column_4842 Column_4843 Column_4844 Column_4845 Column_4846 Column_4847 Column_4848 Column_4849 Column_4850 Column_4851 Column_4852 Column_4853 Column_4854 Column_4855 Column_4856 Column_4857 Column_4858 Column_4859 Column_4860 Column_4861 Column_4862 Column_4863 Column_4864 Column_4865 Column_4866 Column_4867 Column_4868 Column_4869 Column_4870 Column_4871 Column_4872 Column_4873 Column_4874 Column_4875 Column_4876 Column_4877 Column_4878 Column_4879 Column_4880 Column_4881 Column_4882 Column_4883 Column_4884 Column_4885 Column_4886 Column_4887 Column_4888 Column_4889 Column_4890 Column_4891 Column_4892 Column_4893 Column_4894 Column_4895 Column_4896 Column_4897 Column_4898 Column_4899 Column_4900 Column_4901 Column_4902 Column_4903 Column_4904 Column_4905 Column_4906 Column_4907 Column_4908 Column_4909 Column_4910 Column_4911 Column_4912 Column_4913 Column_4914 Column_4915 Column_4916 Column_4917 Column_4918 Column_4919 Column_4920 Column_4921 Column_4922 Column_4923 Column_4924 Column_4925 Column_4926 Column_4927 Column_4928 Column_4929 Column_4930 Column_4931 Column_4932 Column_4933 Column_4934 Column_4935 Column_4936 Column_4937 Column_4938 Column_4939 Column_4940 Column_4941 Column_4942 Column_4943 Column_4944 Column_4945 Column_4946 Column_4947 Column_4948 Column_4949 Column_4950 Column_4951 Column_4952 Column_4953 Column_4954 Column_4955 Column_4956 Column_4957 Column_4958 Column_4959 Column_4960 Column_4961 Column_4962 Column_4963 Column_4964 Column_4965 Column_4966 Column_4967 Column_4968 Column_4969 Column_4970 Column_4971 Column_4972 Column_4973 Column_4974 Column_4975 Column_4976 Column_4977 Column_4978 Column_4979 Column_4980 Column_4981 Column_4982 Column_4983 Column_4984 Column_4985 Column_4986 Column_4987 Column_4988 Column_4989 Column_4990 Column_4991 Column_4992 Column_4993 Column_4994 Column_4995 Column_4996 Column_4997 Column_4998 Column_4999 Column_5000
feature_infos=none [0:0.19437487327324507] none [0:0.33855858969230501] [0:0.42624640698985178] none [0:0.32323814386351268] none [0:0.19472206602141912] [0:0.16228455997369209] [0:0.12813788790571495] none [0:0.6503721993940712] [0:0.53909329265989525] [0:0.22414300973001161] none [0:0.095323602043968739] none none [0:0.54298185378303099] [0:0.12393367862474053] [0:0.096529805857531389] [0:0.12452710850781193] [0:0.1952356409324304] [0:0.16012139770435399] [0:0.19371855764042148] [0:0.082605636185493062] [0:0.41429081608564883] [0:0.17566546066773139] [0:0.20495278704018632] [0:0.40342926687020747] [0:0.5076757391014961] none [0:0.20556808463669191] [0:0.25695428015375615] none [0:0.1541032062988201] [0:0.31024658012558526] [0:0.17917516852705534] [0:0.37543332674249563] [0:0.13959081207656382] [0:0.63302136497423422] [0:0.13741012195533192] none [0:0.10272994847356388] none [0:0.14133743711192184] none none none [0:0.16918037190668492] [0:0.12679588315018456] [0:0.14098937618183041] [0:0.29734783477450033] none [0:0.1550634431739204] [0:0.26891135061203292] [0:0.20114917565959525] [0:0.20006987518392877] [0:0.14702724154319871] [0:0.15799190414557726] [0:0.18998992714212171] [0:0.15626495061936899] [0:0.18648864600641771] [0:0.19893510762249519] [0:0.11899850142594931] [0:0.14810583716113976] [0:0.15595913332500788] [0:0.23062802920587255] [0:0.26100107537081418] none none [0:0.30769797510002073] [0:0.12120745269612052] [0:0.20499566135428676] [0:0.2091253254585442] [0:0.2006604696817475] [0:0.2461638729245737] [0:0.26498156462668793] [0:0.3026063717695629] [0:0.30363221805105767] [0:0.16380930301084887] [0:0.19371615451758908] [0:0.19034729093849154] [0:0.30825215013845403] [0:0.19769152454510933] [0:0.2652539267506675] [0:0.22376320640615652] [0:0.2843144021349634] [0:0.35195391223282291] [0:0.18925120535148393] [0:0.21859853955689162] [0:0.33780315051180371] [0:0.28414936833372917] [0:0.65233796476545314] [0:0.28734921004235731] [0:0.27071425743608168] [0:0.31681522658268035] [0:0.26182988200091856] [0:0.26930065686577476] [0:0.17385349890362581] [0:0.30446067628415463] [0:0.34736497011396383] none [0:0.23294606377540086] [0:0.16224612942296671] [0:0.16165846380768209] [0:0.14782235703433019] [0:0.12672506343699946] [0:0.29241074256860422] [0:0.15245339014354059] [0:0.54661638554646474] [0:0.20213357538849333] [0:0.18086495408533401] [0:0.3437714581051286] [0:0.14660919552337218] [0:0.24431005876976022] [0:0.30173092083976583] [0:0.2720234819900223] [0:0.27458428352004327] [0:0.23933503947629622] [0:0.2609467415597283] [0:0.15435113919979271] [0:0.26787907544324074] [0:0.11589733864236465] [0:0.15712718019890048] [0:0.24115327211377871] [0:0.11188068833103612] [0:0.16427102391841056] [0:0.1890578682585535] [0:0.1318724080681741] [0:0.43850776141811504] [0:0.36934263201542622] [0:0.26363884688020461] [0:0.14587479459340047] [0:0.33951407282869528] [0:0.14339980980187339] [0:0.12465730667313743] [0:0.17287324151821634] [0:0.1669409650523325] [0:0.15854168630594453] [0:0.21608709121695893] none [0:0.17314289597287491] [0:0.35324416636240652] [0:0.082888281015999654] [0:0.30532985836705601] [0:0.14215523285435297] [0:0.2555093273859449] [0:0.14701915976145113] [0:0.21874912591378515] [0:0.13385369491588908] [0:0.16176080327578146] [0:0.10376318352354928] [0:0.19613989105884805] [0:0.19067001852060347] [0:0.1600186068164352] [0:0.093125635425968051] [0:0.095762477071975965] [0:0.083919394360625246] [0:0.11282879697247124] [0:0.10395335710230511] [0:0.095522845364696643] [0:0.084131336429026607] [0:0.2042644901564605] [0:0.11070301007146602] [0:0.3452311231625752] [0:0.20755561700442432] [0:0.14454591809753309] [0:0.1518463611828805] [0:0.09038979195605612] [0:0.10827937937772557] [0:0.1014783375640961] [0:0.12870791741338403] [0:0.20879612120403235] [0:0.13803011127316095] none [0:0.17772099457042143] [0:0.10399237174700199] [0:0.3024719267111915] [0:0.198380147872666] [0:0.35355922447077626] none [0:0.23848643387417859] none [0:0.18039757285663349] [0:0.21680269563951476] [0:0.10241109734088422] [0:0.15839351650455422] [0:0.18884872504963901] none [0:0.08792709589080272] [0:0.25281082359275131] [0:0.15623711333426113] none [0:0.24456907533445235] [0:0.099144383208639622] [0:0.33197552751005582] [0:0.25568395042106828] [0:0.25636077751789915] [0:0.36722782427667705] [0:0.39243372292094419] [0:0.14886400686368695] none [0:0.22061643823001595] [0:0.27274676559224076] [0:0.18410134724180091] none [0:0.24215731321392078] none [0:0.32429476998972984] [0:0.65493200357941039] [0:0.26377821570006404] [0:0.10140724935722217] [0:0.24550844686640769] [0:0.22707204123344088] [0:0.19048631445947992] [0:0.46147615421308552] [0:0.10993957565725827] [0:0.086836881342579136] [0:0.16298331286631099] [0:0.11014861192940496] none none [0:0.1738624778445946] none none [0:0.20290283854134086] [0:0.16695505638397001] [0:0.12643741906045802] [0:0.20121099444866372] none [0:0.25210927608406458] [0:0.35850854809687516] [0:0.13599397426192467] none [0:0.32472990270344027] [0:0.27372110256596527] [0:0.27241407672313056] [0:0.21057326618885633] [0:0.56460336318820425] [0:0.34307721906375011] none [0:0.42498889343035318] [0:0.31879225885096407] [0:0.17063699649294128] [0:0.16343020159092964] [0:0.10237552388629591] [0:0.12168667912469631] [0:0.20625701357411383] [0:0.11956134958936028] none [0:0.15181643859264629] [0:0.092373048172882791] [0:0.24949264136878449] [0:0.21014801061674088] none [0:0.14956463711010348] [0:0.15659189416412048] [0:0.13379487406120794] [0:0.29160996803428374] [0:0.11827694605836521] [0:0.12708369891336682] [0:0.15168835756759752] [0:0.084076546169564545] [0:0.13573553132869159] [0:0.12567296597078248] [0:0.12689689899244075] [0:0.18048910979326177] [0:0.1150922358624511] [0:0.13130310663664496] [0:0.19118476527823292] [0:0.084842599737142421] [0:0.09899993982136307] [0:0.31080516023747706] [0:0.2949918927973828] none [0:0.10882332074760367] [0:0.34972507092591415] [0:0.1480428524902947] [0:0.39165819984093997] [0:0.17198216533161226] none [0:0.22183272523383418] [0:0.38574757169742069] none [0:0.16540507149498565] [0:0.12551674564198168] [0:0.083688633183978553] [0:0.32567266228321123] [0:0.15278915520302253] [0:0.14695031965097405] [0:0.15814836546999031] [0:0.19007966977980426] none none [0:0.11144426166361016] [0:0.44587967745780016] [0:0.23798304797226266] [0:0.098613970458349021] [0:0.20198066339051313] [0:0.13755971439073619] none [0:0.16547460309611497] [0:0.17131782740797807] [0:0.099378966646209849] [0:0.19277720577639793] [0:0.17080838156066111] [0:0.11420136049294369] [0:0.20300857315256821] [0:0.11825128342893929] [0:0.10120546597478709] [0:0.16742437587212583] none [0:0.16494316026922187] none [0:0.10845743890191625] none [0:0.36009680723037729] [0:0.44523161486328633] [0:0.17284315098074318] [0:0.14494997085923902] [0:0.097710645073299046] [0:0.28407992454344699] none [0:0.29114446896760726] none none [0:0.23621777861960197] none none [0:0.34111128491878989] none [0:0.73979577007906028] [0:0.43756691616011062] none [0:0.50375664883582616] [0:0.14791334662337327] [0:0.19019802404975245] [0:0.33527514808918563] [0:0.25566707958597473] [0:0.32437571201360227] none [0:0.20875073322281823] [0:0.2217528270589933] none [0:0.21577825985822696] none none [0:0.14898221978892767] [0:0.11206167125744505] [0:0.10309280324000174] [0:0.18684687278305687] none [0:0.14744113753002808] none [0:0.32567453255272377] [0:0.29005377983566982] [0:0.2110405102671728] [0:0.24474561097963995] [0:0.24177753710003361] none none [0:0.19694604638730989] [0:0.1677576421020999] [0:0.1367703556635898] [0:0.17843345043847597] [0:0.12378928720991321] [0:0.21289749254284471] none [0:0.24545911170330911] none none [0:0.31611366529957396] [0:0.28147764032630429] [0:0.17020889141189224] [0:0.11335987539753442] [0:0.13695960728645717] [0:0.14789566222865824] [0:0.42606417209752473] none [0:0.19244353481092225] [0:0.14905553306678193] [0:0.17018797624294452] [0:0.20572277432551928] [0:0.37765836916019352] [0:0.45440254472958003] none [0:0.15594272870638559] [0:0.3081819613498934] [0:0.27946285152351569] [0:0.10874610992381636] [0:0.1802175466293581] [0:0.38064603675178893] [0:0.2782423520504641] [0:0.30139059388276185] [0:0.16880114814649119] none [0:0.15713801868298138] [0:0.55009135771074258] [0:0.32590876332823437] [0:0.37523056829495893] [0:0.23945927922766247] [0:0.18326462842265268] [0:0.21540560863311128] [0:0.18054715049275341] [0:0.1917432738500893] [0:0.28041513333335477] none [0:0.16128944389562375] [0:0.18277996145811742] [0:0.40707449853586941] [0:0.13225732606954094] [0:0.13106604005162811] [0:0.11169397803273656] [0:0.14844367970350089] [0:0.097317317223745398] [0:0.17452176918156767] [0:0.24468459693135169] [0:0.28890571376711327] [0:0.19653754864741318] [0:0.42596248871999515] [0:0.14077718128025912] [0:0.12179139024113671] [0:0.13663465471829594] [0:0.13749848620202074] [0:0.091186196476422107] [0:0.15776797039739457] [0:0.094099756875583654] [0:0.3148972166381736] [0:0.12765169649168803] none [0:0.19789591310690754] [0:0.52379391462517777] [0:0.20708866445519331] none [0:0.74570417995058336] [0:0.13729983192373046] [0:0.17035910621490616] none [0:0.44462560913650967] [0:0.47752852905283411] [0:0.18949278868160163] [0:0.21382237770280901] [0:0.46693988526363617] [0:0.27528042966970362] [0:0.59659518301759951] [0:0.15972414442991117] [0:0.17396540919909961] [0:0.2054241342621124] [0:0.17656249632516513] [0:0.16317302283381518] [0:0.12029284278863898] [0:0.14441223575993906] [0:0.13606423274108867] [0:0.13653361211048062] [0:0.13434485041828004] [0:0.16154989744485543] [0:0.33633835096003867] [0:0.46923584314909617] [0:0.22875235510120967] [0:0.11063646687568178] [0:0.43845726628867765] [0:0.25651661284725247] none [0:0.22855789811265717] [0:0.1116634923623749] [0:0.16744694006147059] [0:0.37293862806916683] none [0:0.096403060626383069] [0:0.13552325526885406] [0:0.18955192949089517] [0:0.17446417071231612] [0:0.10408642416730458] [0:0.25579741678725693] [0:0.30585120595068216] [0:0.19486519842001976] [0:0.20313893172554828] [0:0.2236127061238144] [0:0.15321909017277929] [0:0.3288536237152711] [0:0.098244120711732691] [0:0.16925105291999332] [0:0.13521036330587591] [0:0.1587112707620216] [0:0.18402207281025634] [0:0.1786009063330965] [0:0.10443364959698315] [0:0.12503420486020445] [0:0.15036796392648083] [0:0.28002444487159817] [0:0.10230416665193806] [0:0.14772765904572435] [0:0.28067276393029167] [0:0.18626611942290019] none [0:0.2315550667140763] [0:0.11530982706432324] none [0:0.32559876156511691] none none [0:0.33023017462473631] [0:0.19232852100966785] [0:0.1039752823224907] [0:0.21542221384510452] [0:0.22450111406552184] [0:0.15822329970356855] [0:0.16908587793541954] [0:0.13152820356817588] [0:0.18832830588001068] [0:0.15417157485218377] none none [0:0.12857998105285856] [0:0.19029282486838828] [0:0.4867254384005123] [0:0.13152621375589343] [0:0.23638882111395795] [0:0.32519703739777389] [0:0.15853694229136811] [0:0.14809285458779775] [0:0.19967056662315849] none none [0:0.53990076270994547] [0:0.36911321953300757] none [0:0.20271377961961431] [0:0.24635822773381794] none [0:0.37502891205171385] [0:0.3233384606095896] [0:0.17307739495756838] [0:0.17802936303888905] [0:0.21612268915649877] none none none [0:0.37465632977795649] [0:0.20702884134808786] [0:0.46488186283245159] [0:0.24275543457420173] [0:0.45619429015103147] none [0:0.21508671919560535] [0:0.10147225832406145] none [0:0.30902495458992923] [0:0.56910028982812] none [0:0.21190770769313541] none [0:0.12437313594960268] [0:0.23529849269160746] none [0:0.21699524797870931] [0:0.18619842224766403] none [0:0.22113306468364136] [0:0.30178464845194863] [0:0.37844457690157313] [0:0.1436384381755576] [0:0.15538853678979331] none [0:0.13901184788431001] [0:0.20469650274466408] [0:0.17200612441323726] [0:0.18733910824943051] [0:0.18534908538346942] [0:0.09211864430648363] [0:0.23046258707863773] [0:0.1560491740402907] [0:0.14700843440507538] [0:0.26736918982038149] [0:0.16164389812548738] [0:0.14986991478087305] [0:0.11846835985344334] [0:0.16048177671918162] [0:0.30075210521250029] [0:0.34161881539195782] [0:0.33290436311243199] [0:0.17323782065873949] none [0:0.28609854947197833] [0:0.10033160741688402] none [0:0.091517093959794155] [0:0.34002111298195797] [0:0.23002225651395641] [0:0.24289534893017689] none [0:0.27770023013529938] [0:0.17970653217521723] [0:0.1380894803676842] [0:0.15711004462955799] [0:0.17677848696477527] [0:0.18449262488665999] [0:0.17229963986823643] [0:0.12963487113396674] [0:0.14033712557748387] [0:0.19952525536704727] [0:0.32722324429075256] none [0:0.57369608323799726] [0:0.20182255762454637] [0:0.18267663106356508] [0:0.19393922862073892] [0:0.20393716093702785] [0:0.27420595866718839] [0:0.20862879939318379] [0:0.15914744951875795] [0:0.30054678983811867] none [0:0.11733602459436857] [0:0.10691329530330211] [0:0.14764113938616535] [0:0.18739352934727632] [0:0.088284162763291069] [0:0.16182265649107938] [0:0.10387440796968021] none none none none [0:0.19996352224853961] [0:0.099324875428688356] [0:0.24206690420522939] [0:0.14652763458989679] [0:0.31829212520134426] [0:0.51130236913911431] none none [0:0.22361687304240249] [0:0.2547512500486484] none [0:0.28538260272094379] [0:0.36857640827394461] none [0:0.14006344318899827] [0:0.260233615660663] [0:0.18366467938969733] [0:0.22713403778699043] [0:0.16220484733029072] [0:0.12511761910517616] [0:0.10191641088380815] [0:0.22856829012044733] [0:0.19260437234431185] [0:0.20807435405367025] [0:0.13218790444696718] [0:0.17232682142375494] [0:0.16084627014652852] [0:0.18025357536355327] [0:0.17376894815767732] none [0:0.24774521456086507] [0:0.44639965922967001] none [0:0.08398160950281125] [0:0.20347195367355597] [0:0.14193101737551744] [0:0.26270951763504957] none none [0:0.29717622115829495] [0:0.24367248356365584] [0:0.37242011963305788] [0:0.61003595581178083] [0:0.15693956744373161] [0:0.26679872140487659] [0:0.10167967356286141] none [0:0.26566818587167046] [0:0.27851862671652405] [0:0.19935104364017997] none [0:0.38381655277473359] [0:0.20628507199929227] none [0:0.39352227947122115] none none [0:0.16979557414116866] [0:0.18800897152664958] [0:0.093358994014919663] [0:0.082407571041821809] [0:0.21495765006177908] [0:0.18442338034786324] [0:0.14127158939182474] none [0:0.11016787464509335] [0:0.14417238139506491] [0:0.13649948467543518] [0:0.30819626477146561] [0:0.33293683676832236] [0:0.33001968839444573] [0:0.29608452358122184] [0:0.12789820594334805] [0:0.21188732762477924] [0:0.11846837442060784] [0:0.12410077608583095] [0:0.21195062275728579] [0:0.16393619439816509] [0:0.42298317566163879] [0:0.13438778581057439] [0:0.41568274453230669] [0:0.17399898480702183] none [0:0.19507179999199301] [0:0.26615378828389002] none [0:0.24935950570810006] none [0:0.2888995937676832] [0:0.34854285130756901] none none none none [0:0.38248746143999707] [0:0.21473339779870554] none [0:0.46543201783765942] none [0:0.60547797785673474] [0:0.37053432437394768] [0:0.19652634041610717] [0:0.087311188297993725] [0:0.15576091539552989] [0:0.25079923833487761] [0:0.22804020908760092] [0:0.35366455503004446] [0:0.20259836210903084] none none [0:0.29242310366536306] [0:0.1513160376591631] [0:0.18449084959775242] [0:0.21934878632356231] [0:0.29555983963290011] none none none [0:0.34535842368949882] [0:0.13341379410295381] none none [0:0.25517330746715317] [0:0.09925904114058931] [0:0.27518415616072217] [0:0.2290442051082518] [0:0.13043336220061963] [0:0.36266873644149916] none none [0:0.24122678245208762] [0:0.34672291799061183] [0:0.31941528427392935] [0:0.14697545077800486] [0:0.39023752995636746] [0:0.17554880193338909] [0:0.24614650793678533] [0:0.17399025103051224] [0:0.18014334443733185] [0:0.22373701768367704] [0:0.11361867086976289] [0:0.23981309875528437] [0:0.11975823075529626] [0:0.10801867447946599] [0:0.096299864589227721] [0:0.16952607260691324] none none [0:0.17480663410204875] [0:0.10111407725566451] none [0:0.31006060403240071] [0:0.35742622384696582] [0:0.17383290706602575] [0:0.15809868859942272] none [0:0.20943293497909227] [0:0.38721162175512147] [0:0.26825654690051304] [0:0.24731035932453055] none [0:0.32775771740986875] none none none [0:0.56033438858141515] [0:0.56681024758456922] none [0:0.35998084129168945] [0:0.24107581994903968] [0:0.28773412916860874] [0:0.52924526691101947] [0:0.26617369431782684] [0:0.37702731690651314] [0:0.40382580083939396] [0:0.27266622812870989] [0:0.25571231483482115] none none none [0:0.17156048174588359] none none [0:0.30535968826944593] [0:0.3996427820488212] [0:0.45999374837697793] none [0:0.22324219585461191] [0:0.37343284987347225] none [0:0.15113741296296471] [0:0.10994758408889355] [0:0.13763133772209774] [0:0.35240539699619128] [0:0.12587706921693909] [0:0.23956476701255883] [0:0.3702839906933249] [0:0.10094575165770617] [0:0.18327166604462963] [0:0.35892044928606137] [0:0.22388666553854711] [0:0.22472340773953592] none none none none none [0:0.40359578246362365] none [0:0.33455880625682632] [0:0.4688738845131879] [0:0.18049013677177661] none [0:0.34767150585085482] [0:0.31598119574678363] [0:0.18492116683866852] none [0:0.15695098961128404] [0:0.43304658402191881] [0:0.18710889774207962] [0:0.21414432688487961] [0:0.15982876617625302] none [0:0.16251144216376376] [0:0.14755675534260482] [0:0.10388870792340787] [0:0.13704990578410972] [0:0.19401609516566296] [0:0.39125694631378199] [0:0.17644903226657682] [0:0.15059873012171676] [0:0.6401079520424594] [0:0.20006987518392877] [0:0.34955938316422891] [0:0.30941959618824405] [0:0.28969400254511979] [0:0.12486813142063452] none [0:0.27002242042212027] [0:0.35037825074976964] none [0:0.36880072748464521] [0:0.082082300360498572] [0:0.11952628305783367] [0:0.28132496652122746] [0:0.27556225753890728] [0:0.47996732518147378] [0:0.40728448064142092] [0:0.27033742487643769] [0:0.15413851470854456] [0:0.43232402450582819] [0:0.26250335727060731] none [0:0.46036127919910508] [0:0.08360081125114889] [0:0.099534605293979714] [0:0.19548595155126611] [0:0.22583100639135503] [0:0.23680315599872356] none none [0:0.24435081964745925] [0:0.10594134718262341] [0:0.11577776283774864] [0:0.1820406870204522] [0:0.54472356428833268] [0:0.41807567387623007] [0:0.32489716461151547] none [0:0.32873798373958274] [0:0.31862283690228616] [0:0.16737484246517845] none [0:0.4919723128362366] [0:0.21770154548383261] [0:0.26735184483408003] [0:0.48643727920712215] none none [0:0.22536558487236891] [0:0.26383151823571893] [0:0.23158951791527657] [0:0.30765028287322987] [0:0.32553137812897703] [0:0.10965842290250791] [0:0.18571292686524546] [0:0.1095562552014782] [0:0.096819136400054767] none none [0:0.11959797807630762] [0:0.15969589074787824] none [0:0.56943198363203962] none [0:0.46636074998823795] [0:0.15520237558411409] [0:0.21039412075491368] [0:0.16063680209440284] [0:0.39568785501897608] [0:0.15550272520280436] [0:0.2896132618224353] [0:0.21644706110928483] [0:0.14829752693438844] [0:0.41558226630192413] [0:0.56234802872346867] none [0:0.3765150981498141] [0:0.25494116646664766] [0:0.28163587777872312] [0:0.19012311199174953] [0:0.14549092739058556] [0:0.12678603633582669] [0:0.29645191258336373] [0:0.31730193061325412] [0:0.11133983717803161] [0:0.49470000534722475] [0:0.11337818714458332] [0:0.11033649289328323] [0:0.14893750308855935] [0:0.42284783595823106] none [0:0.29038212786008843] [0:0.14843077611492386] [0:0.16997978293610067] [0:0.3385184558498589] [0:0.23750311129895132] [0:0.14347259791035058] [0:0.26799800168546822] [0:0.19241202428388335] [0:0.19302718613293235] none [0:0.23418635894224166] [0:0.16171981263675658] none [0:0.25424340891275576] [0:0.091433714271535904] [0:0.13468168977972492] [0:0.41904679690878621] [0:0.6259158216332773] [0:0.1156235544089055] [0:0.26711832680927738] none [0:0.27743837701083368] none [0:0.33362610733913739] [0:0.14026121316939869] [0:0.20538476397339159] [0:0.28468854404680194] [0:0.17791070417722077] [0:0.25643790318677312] [0:0.27754953893913964] [0:0.24227034642509279] none [0:0.17833698811708379] [0:0.26635324456926407] [0:0.14382812675301915] [0:0.21254622163592435] [0:0.15674545950966251] [0:0.29715762779389449] [0:0.30913629297606898] [0:0.19509806622319437] [0:0.26315927283962243] [0:0.19087653470608881] [0:0.10137500532963686] [0:0.17040693300798468] [0:0.11265243949872367] [0:0.39565300764089273] [0:0.48324898153422563] none [0:0.1476177995003333] [0:0.25491698682222524] [0:0.32460985668477593] [0:0.089849648032835475] [0:0.47545193023730814] [0:0.25654208880912011] [0:0.2060305118438869] [0:0.16822834148482824] [0:0.28586083164749509] [0:0.46018226654856315] [0:0.27664128705676139] none none none [0:0.28811711148632713] [0:0.41193949154602943] [0:0.18083487919040675] none none [0:0.20156051849342463] [0:0.19379046492728211] [0:0.42373810895915476] none none [0:0.27836849768648581] [0:0.1942012277657594] [0:0.3538976702753398] [0:0.29933104712181963] [0:0.30630709312194465] [0:0.3014178373898983] [0:0.22271794729923081] [0:0.081494034870684351] [0:0.27198794852384933] [0:0.14525842011304577] [0:0.17754758634968459] [0:0.18471436512051284] [0:0.15690831740210343] none [0:0.20398318301346233] [0:0.10574207200576204] [0:0.12751980119776776] [0:0.2807536641082013] [0:0.18060103187322335] [0:0.1606276693009826] [0:0.086028266044296781] [0:0.46470753425500538] [0:0.1486354227091724] none [0:0.13410048389222387] [0:0.3256864982836824] [0:0.267072380953848] [0:0.11918595915383222] [0:0.21294651566750539] [0:0.32915446813840027] [0:0.29874916311331723] [0:0.32296923101622349] [0:0.18933610106280691] [0:0.12796294432472638] none [0:0.18791933785913237] none [0:0.21961905021067671] [0:0.20796503710293998] [0:0.28439818035018383] [0:0.16089323759062957] [0:0.13491066617495567] [0:0.11762932398097614] [0:0.10214912364424313] [0:0.15297143144106812] [0:0.11093432893278835] none [0:0.24606047841970324] none [0:0.089647842677512343] [0:0.10001291593233089] [0:0.25665333976020566] [0:0.13615832993062124] [0:0.14640742453013525] [0:0.10658242914404746] [0:0.114516838587106] [0:0.10020075413594642] [0:0.14284346569251977] [0:0.10614895468691221] [0:0.43891174422533108] [0:0.29731017666563764] [0:0.29989436747370546] [0:0.099898017923576221] [0:0.13377224380602659] [0:0.18242180907341979] [0:0.25266535361209902] none [0:0.18308203547762922] [0:0.15465337419503283] [0:0.13103347269508406] [0:0.20849798055163274] [0:0.20664107421109196] [0:0.2352842611814551] [0:0.34645716445678126] [0:0.20144920934946159] [0:0.1477322265092853] [0:0.13321343628368051] [0:0.12485309760248754] [0:0.10872110832459206] [0:0.15237917768348566] [0:0.15842265058932201] [0:0.10132821163448344] [0:0.090185624291772334] [0:0.14071830368147178] [0:0.099100226718497719] [0:0.11892687589082707] [0:0.12183510290054637] [0:0.1623744039466147] [0:0.13126654546450087] [0:0.096607069190613876] [0:0.13597141848150324] [0:0.15684261931599924] [0:0.14584308969325682] [0:0.17422075817888003] [0:0.1621288069765402] none [0:0.17203516698647334] [0:0.13212356969508093] [0:0.094791878065592833] [0:0.15099905487213341] [0:0.12274675832710739] [0:0.15551721328340087] [0:0.21579620404738689] [0:0.18556153608128306] [0:0.37700131109205126] none [0:0.20276527496747504] [0:0.14649184333727858] [0:0.13793846666148615] [0:0.10026097644109074] [0:0.24941445620255584] [0:0.34453737185345529] [0:0.28561206934844563] [0:0.15231087845588262] [0:0.1010451495918257] [0:0.12385522571095892] [0:0.13598129044691562] [0:0.57413638669316602] none [0:0.46320048677790582] [0:0.4330262269866274] [0:0.38548944651406086] [0:0.61003550363382442] [0:0.3919158449327888] none [0:0.31946170047868072] none none [0:0.19820854916906902] [0:0.36351528042440218] [0:0.14992137863448829] [0:0.25297350832044235] [0:0.28671147634554733] [0:0.1509093545777499] [0:0.13804405206330056] none none [0:0.30159647454819982] [0:0.18776605255073203] none [0:0.20762536376814764] [0:0.094892884788626619] [0:0.153803014287477] [0:0.15982101585831934] [0:0.14271364063991063] [0:0.22170830933395733] [0:0.26808431756625783] [0:0.11984971323114535] [0:0.53136718055096266] none none [0:0.46701917737369952] [0:0.27725156647540333] [0:0.10659849983670282] [0:0.17707619032344382] [0:0.10050250908811093] [0:0.1329184072175533] [0:0.090853833466802286] none none [0:0.43849167413915591] none [0:0.13862500878554004] [0:0.2336224543740911] none [0:0.31512450255630814] [0:0.15623031233807608] [0:0.11260865393982401] [0:0.330902976296159] none none [0:0.24121647800920915] [0:0.14699166149643869] [0:0.25258454995549051] [0:0.24964142925952429] [0:0.13650487034178652] [0:0.42703615886861446] [0:0.32162580999672963] none [0:0.15526589209580313] none [0:0.23352265671952258] none [0:0.36666330164236266] none [0:0.14904548098835341] [0:0.10920516102273331] none [0:0.11683253140024945] [0:0.12515080334790227] [0:0.37633827560948208] [0:0.28650814810307212] [0:0.23193258989082871] none [0:0.18489659157471364] [0:0.14261439043543717] [0:0.20352946671609312] none [0:0.13901526859616739] [0:0.12741963580227186] [0:0.55616602119558189] [0:0.18012103017655046] [0:0.22715477062105172] [0:0.34752914233591981] [0:0.29569470014086735] [0:0.17018201854157808] [0:0.14611264180944628] none [0:0.38125538907036738] [0:0.42681472693047928] [0:0.44667989125808344] [0:0.56940332212345701] [0:0.2674638044977744] [0:0.15060342958790918] none none none [0:0.48137523624194895] [0:0.14618747027389875] [0:0.19897197381256254] [0:0.2476173694858205] [0:0.14391326224291762] [0:0.1986143477159952] [0:0.13935113788120282] [0:0.12214915084502637] none none [0:0.34167031239498463] none [0:0.13197371821797585] [0:0.098563655991000185] [0:0.29912811801703804] [0:0.31500062879904006] [0:0.1600186068164352] [0:0.20664107421109196] [0:0.41598765370620916] [0:0.20186593122098206] none none [0:0.34548642873842789] none [0:0.24882060259345765] [0:0.33904158650875632] [0:0.35473530564541289] [0:0.11311565574282198] [0:0.42974136842712973] [0:0.18457210010619171] [0:0.20704864767378434] none [0:0.14106893991273065] [0:0.41577108787079736] none none [0:0.22108297354786946] [0:0.66012366043637716] [0:0.14908862720904459] [0:0.18886352482333144] [0:0.15420859870324707] [0:0.18343775363877241] [0:0.22115205640820745] [0:0.14094641045204992] [0:0.26138442355381963] [0:0.17095537401463229] [0:0.11548147076722731] [0:0.20565478330729459] [0:0.2457790452421712] [0:0.16916708436402067] [0:0.094111765450744955] [0:0.1537141303831884] [0:0.13105799295713683] [0:0.25374017942942551] [0:0.27026239668173202] [0:0.31215098833468891] [0:0.13897070023265257] [0:0.35679531214972438] none [0:0.15326657719578415] [0:0.14646937105122138] [0:0.52959913904557987] none [0:0.60418742540569814] [0:0.33002866635810546] [0:0.10593502749023385] [0:0.23716008921264412] [0:0.39017836990690047] [0:0.17277700513206451] [0:0.15296787946281248] [0:0.32178982656990529] [0:0.42570858414265977] [0:0.20437930812702651] none none [0:0.3795642832632648] [0:0.2456835634744329] [0:0.38048135424261798] [0:0.44194331439889034] [0:0.2072224476421991] [0:0.18980818858215223] [0:0.14359971533454249] [0:0.16258625341103197] [0:0.097113416534701749] [0:0.1728806431933825] [0:0.1991635067108285] [0:0.12848814068638964] [0:0.20010515807852428] [0:0.28256272830194468] [0:0.44973876583612549] [0:0.23388311760983571] [0:0.37289004318685237] none none [0:0.12088406195477601] [0:0.091519761105306491] [0:0.1283786313540132] [0:0.10114472048029589] [0:0.32984519170058479] [0:0.11930144143784276] [0:0.090581746137077548] [0:0.10991239419281038] none [0:0.089266946745537826] [0:0.11966847202166626] none [0:0.32740419810901145] [0:0.20992294019389079] none none [0:0.21483008896314598] [0:0.2159136990610257] [0:0.088298880326486931] [0:0.55820316932590963] [0:0.57600847906931807] [0:0.23767096816330013] [0:0.3346930979681263] none [0.0076610031663451655:0.64991928091074069] [0:0.16913036555226932] [0:0.19547129633680671] [0:0.17651436516680538] [0:0.22825127285476701] [0:0.19431733627916298] [0:0.17602943279528455] [0:0.20670733571994351] [0:0.39080708984745444] [0:0.15583735304648397] [0:0.088964534145713467] [0:0.17642311863008514] [0:0.14466548378407085] [0:0.16247985802143536] [0:0.17146530169736018] [0:0.11333331458810962] [0:0.22744817876352771] none [0:0.16970463544713921] [0:0.18185198300269673] [0:0.12051907365602166] [0:0.15086159619099374] [0:0.18719616678520803] [0:0.22664908099610376] [0:0.54592777004537685] [0:0.39463387929957267] [0:0.27525497748271688] [0:0.13147936572829047] [0:0.20292012698140138] none [0:0.12196195679998763] [0:0.10153601009353394] [0:0.17013115555962377] [0:0.2832383990921914] [0:0.13010148082070261] [0:0.16333881198558942] [0:0.11814315389006726] [0:0.25447292821663864] [0:0.12155922219819595] [0:0.098740959232325454] [0:0.13636109557472395] [0:0.34793103633395223] [0:0.17597817823901871] [0:0.10236744371159864] [0:0.22485719392919409] [0:0.11612211281045169] [0:0.16747332071333901] [0:0.16172456189845841] [0:0.085643588082932029] [0:0.17306329200391607] [0:0.11600687498493099] [0:0.14007488036519042] [0:0.10797846949222521] [0:0.23711622127056001] [0:0.38716440413391123] [0:0.40481472238648014] [0:0.35329073901846419] [0:0.27960820110631723] [0:0.14064088399251209] [0:0.15077164878823907] [0:0.26821293869581325] none [0:0.13479334486414674] [0:0.10468385040275804] [0:0.11045283906094387] [0:0.20340356130557197] [0:0.14587139307112368] [0:0.13276093468275255] [0:0.11107788350854859] [0:0.1141492520986921] [0:0.15530382296321449] [0:0.20360976740967301] none [0:0.15777791411375519] [0:0.22297681929974622] [0:0.15022243493027784] [0:0.18522148795108659] [0:0.11169297251167407] [0:0.41246181284736483] [0:0.11527975512097088] [0:0.1751321262201124] [0:0.11380793834520724] [0:0.68050108347385974] none none [0:0.29770746367272788] [0:0.67974958598982149] [0:0.18541797501959872] [0:0.50284431790957573] [0:0.45699894243898997] [0:0.090894606435689806] none [0:0.11622621784385415] [0:0.2417079303281075] [0:0.37717862880834219] none [0:0.11771080081425428] [0:0.18851922142237168] [0:0.14418595643604828] [0:0.17898166244265359] [0:0.21501778679195815] [0:0.10907664615797838] [0:0.13440830171381501] [0:0.18006640812377001] [0:0.11935440535246421] [0:0.089965349343449658] [0:0.15943635144811399] [0:0.11676040563647581] [0:0.11115790161691455] [0:0.077604818977735662] [0:0.26971113317094708] [0:0.092943350664772301] none [0:0.093197803750354608] [0:0.13702601324171101] [0:0.096783380471084174] [0:0.15431389432462289] [0:0.26190798513823654] [0:0.20305697416827073] [0:0.15590040771964969] [0:0.17197741611202289] none [0:0.11182329241030528] none [0:0.19874044731139037] [0:0.13561767901151472] none none [0:0.3869939661761535] [0:0.42502525124399976] none [0:0.16768184952935181] [0:0.13316979023817269] none none [0:0.61638752085828696] [0:0.56271817989020856] none [0:0.22438774798004302] [0:0.14276854599043673] [0:0.15294716106923489] [0:0.16223909801771894] [0:0.22915003556269445] none [0:0.14382084454777527] none [0:0.11712620648238567] [0:0.2335177755346195] [0:0.19466410905265821] [0:0.24029100267136078] none [0:0.09946681061853227] [0:0.11820900550795868] [0:0.14530060620110688] [0:0.17312724204358118] [0:0.13437698861317623] [0:0.34968506724727672] [0:0.13957952752006755] [0:0.30370635949273089] [0:0.22201334341776163] [0:0.12433115963823213] [0:0.15494226580425419] [0:0.2598103538651737] [0:0.15029073169610474] [0:0.093165791700954334] [0:0.11992873390593002] [0:0.15102226684052927] [0:0.13621595104531997] [0:0.14693226153879829] [0:0.15728471096408878] [0:0.28446801213086442] [0:0.16891391704075071] [0:0.1450247581968645] none [0:0.26204224782597757] [0:0.27545326287423932] none [0:0.31936270858785415] [0:0.55139476367611817] none [0:0.16542979088021406] none [0:0.14982183886203371] [0:0.12084693627980111] [0:0.11984708928757642] [0:0.41912794250785845] none [0:0.74868062732138918] [0:0.21073735894245643] none [0:0.13721187325129292] [0:0.23992069139959099] [0:0.12076678098608631] [0:0.13480460743079306] [0:0.13038909045180802] [0:0.10943076093151591] [0:0.14942066355614927] [0:0.25887564592927775] [0:0.32015928790346204] [0:0.18461191505553359] none [0:0.34879115887149326] none none [0:0.15034570253718779] [0:0.19239358367327414] [0:0.084713136712787268] [0:0.15858134186529083] [0:0.11284420551636633] [0:0.1569740310640455] [0:0.24856990960281269] [0:0.13232472985333082] [0:0.1869369212845339] none [0:0.10345439146631498] [0:0.12160849144724815] [0:0.1890446160280648] [0:0.22869051988392022] [0:0.15587524596573837] [0:0.22468424743561299] [0:0.44432147012548778] [0:0.40524509510777512] [0:0.49929230690990278] none [0:0.30112086588552711] [0:0.64906223777879535] [0:0.18926653126721957] [0:0.20392024146704407] [0:0.13246089675325012] none [0:0.38797056689737891] none [0:0.16842911593471871] [0:0.40972154956391826] [0:0.21949354148250472] [0:0.14615192766496046] [0:0.2028472636055387] [0:0.14636506049770576] [0:0.33408559951565858] [0:0.27571287491500018] [0:0.17817709310014546] [0:0.16530816904005097] [0:0.17667200606879521] none [0:0.17112882718927508] none none none [0:0.087318241793858137] [0:0.10300835918153757] [0:0.17755796553265599] [0:0.61075298425068658] [0:0.23119131522481931] [0:0.19736754457176314] [0:0.29337542079833628] [0:0.23760221326328299] [0:0.31984312009820581] [0:0.16404086162978254] [0:0.2253405289219815] [0:0.11999183129536845] [0:0.13427009469938328] [0:0.13012446759718832] [0:0.4305813411375759] [0:0.33225173940029995] [0:0.33095158899516597] [0:0.14055655817265328] [0:0.15150531571049652] [0:0.16361260140821274] [0:0.14019858614088188] none [0:0.28239686416728699] [0:0.18287842200374271] [0:0.36991708835557274] [0:0.47928445131954683] [0:0.1262630399422309] [0:0.11566847238418988] [0:0.28519752407392396] [0:0.15993619307693188] [0:0.21237078749252511] [0:0.19255519840774185] [0:0.15609714004520123] [0:0.44014069180488941] [0:0.18839845862328863] [0:0.15503985788096364] [0:0.16968519947428484] [0:0.11652813860057261] [0:0.10223951267540932] [0:0.35410580751612475] [0:0.32294235906486468] [0:0.26442788346231982] [0:0.37049113041220094] [0:0.1367975131263463] [0:0.54852992839163273] [0:0.12729711859913403] [0:0.22001634895285963] [0:0.26243859086501437] none [0:0.24376865858041516] [0:0.19937083221068419] [0:0.20066831384808093] [0:0.30297551990390298] [0:0.37530579964310629] [0:0.25995739239357785] [0:0.38912164380624104] [0:0.14839775152279239] [0:0.33990470887011554] none [0:0.23642087065378009] [0:0.43430023514605193] [0:0.28993943959132207] [0:0.27629369548757654] [0:0.28493032138854291] [0:0.29197765614701371] none none [0:0.17688849088903955] none [0:0.13454846233562101] [0:0.21747331812442086] none [0:0.093371501251513916] [0:0.39913790258073883] [0:0.26433305448609867] none none [0:0.12427271670928049] [0:0.30211850080690433] [0:0.16877300729129813] [0:0.16329572618719679] none [0:0.13838439222955931] [0:0.14280940651027516] [0:0.21518926613158343] [0:0.1494301418397346] [0:0.30741224615479201] [0:0.30511564660798501] [0:0.29289014109169104] [0:0.18116096723796982] [0:0.3177565767774152] [0:0.15746644718400346] none none [0:0.28480315627089947] [0:0.43708237852456616] [0:0.30906469463823683] [0:0.18655175701469923] [0:0.29208244480083828] [0:0.15260008312404719] [0:0.33814549412475459] [0:0.40401950669469233] [0:0.29493366705322055] [0:0.29483060256493099] [0:0.16123879336841082] [0:0.47744470858717952] [0:0.32322366882561432] [0:0.35115492162254447] [0:0.20543476473692188] [0:0.47662616536633373] [0:0.3286816657580614] [0:0.30080175780411134] [0:0.28523747184397302] none [0:0.19111800658441047] [0:0.095240134757030345] [0:0.14098428953815026] [0:0.1974487757102362] [0:0.32653527049260495] [0:0.21361119352625557] [0:0.11332445502934045] [0:0.13615600768175182] [0:0.35518200214559575] [0:0.13874803336960509] [0:0.25561642556985059] [0:0.17684815175713658] [0:0.084675330708144855] none [0:0.36285311538538717] [0:0.14613314538688985] [0:0.34122666277031816] [0:0.17211729997757233] [0:0.35693627845765874] [0:0.19247777592573623] [0:0.38975420577736247] [0:0.10400438593839989] [0:0.17139080254521757] [0:0.22956012339499993] [0:0.22690045795486166] none [0:0.17761385206695107] [0:0.34006799034573587] [0:0.20480553678738125] [0:0.16584673876691997] [0:0.20886813747179983] [0:0.11115790161691455] [0:0.12804509279435372] none [0:0.19946929216460824] none [0:0.2159231119545113] none none [0:0.12413156647218455] [0:0.23316417709101475] [0:0.13339744384396865] [0:0.24393468854528344] [0:0.20261462083238779] none [0:0.20040597072277541] [0:0.13034630166436453] [0:0.18545652755601244] [0:0.17564387701359638] [0:0.29722178303543284] [0:0.12415859718589602] [0:0.13782007515991285] [0:0.15934743132500623] none [0:0.14194398454799551] none [0:0.19932639956496684] [0:0.20040272064419229] none [0:0.55862030098664339] [0:0.1579940203024584] [0:0.51885552181485584] [0:0.26154406175898998] [0:0.14967371298073598] [0:0.20421724241127706] [0:0.1780554487404726] [0:0.19504099953925538] [0:0.13330978286402764] [0:0.088625393641261846] [0:0.1870386726250344] [0:0.13992548103240893] [0:0.35286290934336217] [0:0.16754678203618664] [0:0.1341487932093883] [0:0.19414336105057228] [0:0.43636098156981151] none none [0:0.36296353444310531] [0:0.21203937816662205] [0:0.27899595360185264] none [0:0.18334681199985914] [0:0.43897776439242009] [0:0.34492442051401961] none [0:0.23032078772959183] [0:0.15755482456421097] [0:0.20111454287726749] [0:0.095016322220302499] [0:0.10642912414677271] [0:0.15980732960727992] [0:0.14632735204156655] [0:0.1169294254425931] [0:0.18458848225988633] [0:0.12677489307317721] [0:0.092904361683781883] [0:0.21798613737683609] [0:0.111794213772552] [0:0.15115669379030913] [0:0.30834811783184501] [0:0.10030504744530792] [0:0.17744939732157156] [0:0.25562593485254081] [0:0.33334064915700096] [0:0.33759970127604721] [0:0.13388932326500833] [0:0.26941393272532943] none [0:0.52553465818242173] [0:0.28012731311673067] [0:0.15984146580984324] [0:0.41134310882081765] [0:0.30412661926870338] [0:0.52283011095583887] none [0:0.48543360239502031] none [0:0.15921362083768517] [0:0.2198738856629899] [0:0.20837279358029701] [0:0.082902386144863421] [0:0.1670198336412079] none [0:0.080039821975865511] [0:0.17230218730690008] [0:0.32808574077565367] [0:0.48008163928575787] [0:0.28219934059559221] [0:0.38235309951843649] none [0:0.40713558233248154] [0:0.17640451489304171] [0:0.17006716759336993] [0:0.23193384669660924] none [0:0.22522355345779221] [0:0.185958014083382] [0:0.13585801242722284] [0:0.17706605494475494] [0:0.12306577026636939] [0:0.091966685945605697] none [0:0.30949960845634361] [0:0.18437276671378502] [0:0.1292281416541598] [0:0.30084648044007495] [0:0.26109897984571162] [0:0.26319816112838712] [0:0.15635830646489232] [0:0.24054307686014831] [0:0.14413908369010675] [0:0.18713460509784563] [0:0.53141107760266648] [0:0.22895164571322343] [0:0.22611664540483228] [0:0.19239984227350113] none [0:0.20038877369798805] [0:0.095881054720601391] [0:0.27614952459305209] [0:0.40654304804429936] [0:0.3209565562561596] [0:0.24074714409351805] [0:0.27238747606673064] [0:0.25823747082719711] [0:0.51611574230964052] [0:0.606580595918911] [0:0.21312537924813235] [0:0.13807745035318872] [0:0.18573438508452] [0:0.28084965183526284] [0:0.23506583900402633] [0:0.088692351121187035] [0:0.24444242035106953] [0:0.16076596776913252] [0:0.28131458862050041] [0:0.15595645958041546] [0:0.45906711217880614] [0:0.38718151764496667] [0:0.32663412175277895] none none [0:0.16961310998076171] [0:0.15215809254139534] [0:0.2170853090633649] [0:0.36903745019862166] [0:0.44721355599370921] [0:0.1865436171589423] [0:0.18561968164631484] [0:0.21803197790719231] [0:0.11159873647711423] [0:0.090775060749644074] [0:0.11839711693421592] none [0:0.14151849181972329] [0:0.16579678180301125] [0:0.26843345044861761] [0:0.1133355876397564] [0:0.2481660018507745] [0:0.31518054205166696] [0:0.5338021781000809] [0:0.53653213851043324] [0:0.35571517358028409] [0:0.30375201188749057] [0:0.26814845870936077] [0:0.18198035848971186] none [0:0.13792808958508262] [0:0.17225583427478744] [0:0.16180308821308365] [0:0.13968467764717787] [0:0.26827065628084251] [0:0.24783115932989788] [0:0.24535638354123687] [0:0.099023053949566009] [0:0.21036596776937755] [0:0.089422260011099458] [0:0.29492507834830139] [0:0.083496756270053804] [0:0.15958375286168286] [0:0.17933632238457398] [0:0.47153873549240599] [0:0.15299727519210646] [0:0.16906979296120486] [0:0.15429834783875518] [0:0.17555691813667623] none [0:0.18011251200983522] [0:0.21330960374453029] [0:0.31809639523838718] [0:0.42105494580537378] [0:0.3215827026579598] [0:0.13706913991604963] [0:0.32437473048572812] [0:0.10378909031911168] [0:0.22009946352345824] [0:0.14511482070525658] [0:0.1552412507754497] [0:0.11837009762921351] [0:0.19991278659959272] [0:0.13944161199182151] [0:0.36251821526003591] [0:0.2265694728124221] 